{"learner":{"attributes":{"scikit_learn":"{\"_estimator_type\": \"regressor\"}"},"feature_names":["BZ_nT_GSM","Speed_km_s","Proton_Temperature_K","Flow_pressure_nPa","SYM_H_nT","Electron_Flux","Speed_km_s_lag_45m","Speed_km_s_lag_3h","Speed_km_s_lag_6h","Speed_km_s_lag_12h","Speed_km_s_lag_24h","Speed_km_s_lag_48h","Speed_km_s_mean_3h","Speed_km_s_mean_24h","BZ_nT_GSM_lag_45m","BZ_nT_GSM_lag_3h","BZ_nT_GSM_lag_6h","BZ_nT_GSM_lag_12h","BZ_nT_GSM_lag_24h","BZ_nT_GSM_lag_48h","BZ_nT_GSM_mean_3h","BZ_nT_GSM_mean_24h","Flow_pressure_nPa_lag_45m","Flow_pressure_nPa_lag_3h","Flow_pressure_nPa_lag_6h","Flow_pressure_nPa_lag_12h","Flow_pressure_nPa_lag_24h","Flow_pressure_nPa_lag_48h","Flow_pressure_nPa_mean_3h","Flow_pressure_nPa_mean_24h","SYM_H_nT_lag_45m","SYM_H_nT_lag_3h","SYM_H_nT_lag_6h","SYM_H_nT_lag_12h","SYM_H_nT_lag_24h","SYM_H_nT_lag_48h","SYM_H_nT_mean_3h","SYM_H_nT_mean_24h","Electron_Flux_lag_45m","Electron_Flux_lag_3h","Electron_Flux_lag_6h","Electron_Flux_lag_12h","Electron_Flux_lag_24h","Electron_Flux_lag_48h","Electron_Flux_mean_3h","Electron_Flux_mean_24h","storm_candidate","Electron_Flux_max_24h","Electron_Flux_std_24h","Speed_km_s_max_24h","Speed_km_s_std_24h","BZ_nT_GSM_max_24h","BZ_nT_GSM_std_24h"],"feature_types":["float","float","float","float","int","float","float","float","float","float","float","float","float","float","float","float","float","float","float","float","float","float","float","float","float","float","float","float","float","float","float","float","float","float","float","float","float","float","float","float","float","float","float","float","float","float","float","float","float","float","float","float","float"],"gradient_booster":{"model":{"cats":{"enc":[],"feature_segments":[],"sorted_idx":[]},"gbtree_model_param":{"num_parallel_tree":"1","num_trees":"100"},"iteration_indptr":[0,1,2,3,4,5,6,7,8,9,10,11,12,13,14,15,16,17,18,19,20,21,22,23,24,25,26,27,28,29,30,31,32,33,34,35,36,37,38,39,40,41,42,43,44,45,46,47,48,49,50,51,52,53,54,55,56,57,58,59,60,61,62,63,64,65,66,67,68,69,70,71,72,73,74,75,76,77,78,79,80,81,82,83,84,85,86,87,88,89,90,91,92,93,94,95,96,97,98,99,100],"tree_info":[0,0,0,0,0,0,0,0,0,0,0,0,0,0,0,0,0,0,0,0,0,0,0,0,0,0,0,0,0,0,0,0,0,0,0,0,0,0,0,0,0,0,0,0,0,0,0,0,0,0,0,0,0,0,0,0,0,0,0,0,0,0,0,0,0,0,0,0,0,0,0,0,0,0,0,0,0,0,0,0,0,0,0,0,0,0,0,0,0,0,0,0,0,0,0,0,0,0,0,0],"trees":[{"base_weights":[-0E0,-3.1841037E-1,3.6118975E-1,-4.087022E-1,2.6857543E-1,2.3988622E-1,4.6780723E-1,-9.054122E-2,-4.3822202E-1,4.348774E-1,9.3642615E-2,1.302929E-1,3.834759E-1,3.7488395E-1,4.8692903E-1,-2.336703E-1,1.7557803E-1,-4.6097472E-1,-2.397354E-1,-3.8636363E-1,4.4459757E-1,2.4941996E-2,-3.913374E-2,2.6149842E-1,-3.0254778E-2,4.0439913E-1,-3.4701493E-1,4.1394576E-1,1.7097701E-1,2.7727273E-1,4.891136E-1,-5.1146384E-2,-3.7708333E-1,-1.2594459E-2,4.2736486E-1,-2.5981596E-1,-4.7971272E-1,-2.7980962E-1,1.6751269E-1,-2.3684211E-2,1.25E-1,-3.0555555E-1,4.518642E-1,-3.3070177E-1,1.8340027E-1,3.2057083E-1,-2.905983E-2,-9.644235E-2,2.8238866E-1,-2.4679488E-2,4.1959414E-1,-4.2276424E-1,2.2916667E-2,4.2906377E-1,1.4925373E-2,-1.3666667E-1,4.0201005E-1,2.4705883E-2,-4.4230768E-1,4.3983823E-1,4.9427563E-1,4.778481E-1,-2.5487804E-1,-2.3255814E-2,-4.535473E-1,-3.480663E-1,2.6728112E-1,-3.2142857E-1,4.6289754E-1,-3.1279945E-1,1.9705883E-1,-1.0897436E-1,-4.8134735E-1,1.19266056E-1,-3.0270126E-1,-2.4107143E-2,2.735294E-1,1.6666668E-2,-1.25E-2,-2.3333333E-2,1.875E-2,4.7185326E-1,3.0414745E-1,-4.958904E-1,-3.640777E-2,-2.4553573E-2,2.3771676E-1,7.3836274E-2,3.8871613E-1,1.5810812E-1,-3.4953704E-1,-1.7001545E-1,2.6717559E-1,-2.4468085E-2,3.627232E-1,4.7796968E-1,3.2455638E-1,3.3333334E-1,-4.7826087E-1,3.409091E-2,4.3904594E-1,4.3243244E-1,-2.4193548E-2,2.4038462E-2,-2.64E-1,-2.2499999E-2,4.4473684E-1,-2.4E-2,1.25E-2,-3.6363637E-1,4.4841674E-1,4.448956E-1,4.9923393E-1,4.903846E-1,-1.6666668E-2,2.4305556E-2,-3.2533333E-1,2.3943663E-1,-3.3898306E-1,-4.7554347E-1,-1.4634146E-1,-4.760274E-1,1.8055555E-1,-4.4444445E-1,3.6649215E-1,-2.2727273E-2,1.25E-1,4.909091E-1,-2.2222223E-2,-1.3496932E-1,-4.0184996E-1,-3.3653846E-1,4.2857143E-1,4.25E-1,-2.881356E-1,-4.8185322E-1,2.9166666E-1,4.084507E-1,-4.1025642E-1,-3.907678E-1,-1.8113208E-1,2.4652777E-2,1.1111111E-1,4.8410013E-1,2.9326922E-1,3.939394E-1,1.8867925E-2,1.25E-2,-2.4931319E-2,-4.722222E-1,2.991453E-1,4.495114E-1,6.865285E-2,4.6546054E-1,-2.984375E-1,4.119159E-1,-5.8035713E-2,-2.992126E-1,3.954918E-1,2.3684211E-2,-4.2676768E-1,-2.664151E-1,3.7277147E-2,3.5857144E-1,-4.659091E-1,4.7928175E-1,-1.2643678E-1,-2.3913044E-2,4.8561278E-1,3.924772E-1,1.1689815E-1,-1.25E-2,2.1875E-2,-4.868421E-1,1.25E-2,-2.3809524E-2,2.3958333E-2,4.853579E-1,3.8352638E-1,2.4264706E-2,-1.25E-1,2.3076924E-2,-3.4513274E-1,-2.2222223E-2,4.8626372E-1,1.25E-2,-2.2499999E-2,4.713161E-1,2.1978022E-1,2.4193548E-2,4.7690386E-1,2.4967587E-2,-1.25E-2,2.483871E-2,-1.25E-2,-1.8785713E-2,1.8269232E-2,-2.2916667E-2,1.875E-2,6.25E-3,-2.2395832E-2,-2.4399262E-2,6.25E-3,2.3333333E-2,-2.4074076E-2,1.875E-2,-2.4825176E-2,-1.875E-2,2.2E-2,-2.4038462E-2,1.25E-2,-2.2916667E-2,2.0972222E-2,1.6666668E-2,-1.25E-2,2.4908425E-2,-1.6666668E-2,1.4242425E-2,-1.7384617E-2,-5.03876E-3,-2.2366865E-2,3.3333336E-3,-2.4342105E-2,-1.5625E-2,2.388393E-2,2.3684211E-2,-1.25E-2,2.2499999E-2,-2.15E-2,-2.4112435E-2,2.1875E-2,-1.6666668E-2,2.2499999E-2,2.3846155E-2,-1.4285715E-2,1.875E-2,-2.4305556E-2,-4.375E-3,-2.1384615E-2,2.2916667E-2,-1.0559211E-2,-1.8269232E-2,1.3851352E-2,2.4403138E-2,-0E0,-1.25E-2,2.1686748E-2,2.218543E-2,-6.6666673E-3,-6.097561E-3,2.3076924E-2,-2.471591E-2,1.6666668E-2,2.4157304E-2,-1.3793103E-2,-2.2727273E-2,2.4074076E-2,1.1160715E-2,-1.6822431E-2,2.4244968E-2,-2.1428572E-2,2.4264706E-2,-1.9512195E-2,2.317881E-3,2.1972362E-2,2.4500001E-2,-2.4603175E-2,2.1875E-2,-2.3317307E-2,-2.0000001E-2,2.4204545E-2,2.3214286E-2,-2.4594596E-2,3.101504E-3,-1.7429246E-2,-1.2156863E-2,1.17079895E-2,1.9061584E-2,-2.2499999E-2,-0E0,-2.4404762E-2,2.4511173E-2,-2.0000001E-2,2.0535715E-2,-1.875E-2,-2.631579E-3,2.4454772E-2,2.1329366E-2,-1.8421052E-2,-1.2257282E-2,2.2246696E-2,-2.4774775E-2,-6.25E-3,-1.25E-2,2.4482006E-2,-2.0833334E-2,2.0098684E-2,1.25E-2,-1.6666668E-2,-2.4679488E-2,-6.9444446E-4,2.4857955E-2,7.1428576E-3,1.4858491E-2,2.471301E-2,1.780303E-2,-6.7307698E-3,-2.232143E-2,2.0000001E-2,2.4142314E-2,6.6666673E-3],"categories":[],"categories_nodes":[],"categories_segments":[],"categories_sizes":[],"default_left":[0,0,0,0,0,0,0,0,0,0,0,0,0,0,0,0,0,0,0,0,0,0,0,0,0,0,0,0,0,0,0,0,0,0,0,0,0,0,0,0,0,0,0,0,0,0,0,0,0,0,0,0,0,0,0,0,0,0,0,0,0,0,0,0,0,0,0,0,0,0,0,0,0,0,0,0,0,0,0,0,0,0,0,0,0,0,0,0,0,0,0,0,0,0,0,0,0,0,0,0,0,0,0,0,0,0,0,0,0,0,0,0,0,0,0,0,0,0,0,0,0,0,0,0,0,0,0,0,0,0,0,0,0,0,0,0,0,0,0,0,0,0,0,0,0,0,0,0,0,0,0,0,0,0,0,0,0,0,0,0,0,0,0,0,0,0,0,0,0,0,0,0,0,0,0,0,0,0,0,0,0,0,0,0,0,0,0,0,0,0,0,0,0,0,0,0,0,0,0,0,0,0,0,0,0,0,0,0,0,0,0,0,0,0,0,0,0,0,0,0,0,0,0,0,0,0,0,0,0,0,0,0,0,0,0,0,0,0,0,0,0,0,0,0,0,0,0,0,0,0,0,0,0,0,0,0,0,0,0,0,0,0,0,0,0,0,0,0,0,0,0,0,0,0,0,0,0,0,0,0,0,0,0,0,0,0,0,0,0,0,0,0,0,0,0,0,0,0,0,0,0,0,0,0,0,0,0,0,0,0,0],"id":0,"left_children":[1,3,5,7,9,11,13,15,17,19,21,23,25,27,29,31,33,35,37,39,41,-1,43,45,47,49,51,53,55,57,59,61,63,65,67,69,71,73,75,-1,77,79,81,83,85,87,89,91,93,-1,95,97,-1,99,101,103,105,-1,107,109,111,113,115,117,119,121,123,125,127,129,131,133,135,137,139,-1,141,-1,-1,-1,-1,143,145,147,149,-1,151,153,155,157,159,161,163,-1,165,167,169,171,173,175,177,179,-1,-1,181,-1,183,-1,-1,185,187,189,191,193,-1,-1,195,197,199,201,203,205,207,209,211,-1,213,215,-1,217,219,221,223,225,227,229,231,233,235,237,239,-1,241,243,245,247,249,-1,-1,251,253,255,257,259,261,263,265,267,269,-1,271,273,275,277,279,281,283,-1,285,287,289,-1,-1,291,-1,-1,-1,293,295,-1,297,-1,299,-1,301,-1,-1,303,305,307,309,-1,-1,-1,-1,-1,-1,-1,-1,-1,-1,-1,-1,-1,-1,-1,-1,-1,-1,-1,-1,-1,-1,-1,-1,-1,-1,-1,-1,-1,-1,-1,-1,-1,-1,-1,-1,-1,-1,-1,-1,-1,-1,-1,-1,-1,-1,-1,-1,-1,-1,-1,-1,-1,-1,-1,-1,-1,-1,-1,-1,-1,-1,-1,-1,-1,-1,-1,-1,-1,-1,-1,-1,-1,-1,-1,-1,-1,-1,-1,-1,-1,-1,-1,-1,-1,-1,-1,-1,-1,-1,-1,-1,-1,-1,-1,-1,-1,-1,-1,-1,-1,-1,-1,-1,-1,-1,-1,-1,-1,-1,-1,-1,-1,-1,-1,-1,-1,-1,-1,-1],"loss_changes":[5.8099014E3,1.4231072E3,3.0600098E2,2.1851392E2,1.0410748E2,1.7421576E2,2.219873E1,7.534378E1,9.6055176E1,1.4819855E1,9.39554E1,1.3233661E2,7.3397644E1,1.7085785E1,4.647217E0,3.3643448E1,3.27919E1,7.188037E1,3.5820633E1,1.0415668E0,1.0026367E1,0E0,8.544773E1,5.9345184E1,5.8505962E1,6.3792603E1,8.36838E0,1.0894104E1,2.478934E1,1.738266E1,2.4111328E0,6.1229042E1,1.9469093E1,3.7367508E1,8.024349E0,3.951877E1,1.0537109E1,1.8270569E1,1.3700128E1,0E0,3.9583334E-1,2.148611E0,5.162506E0,2.769194E1,2.7483034E1,4.8277344E1,3.5145355E1,6.2459003E1,3.0804626E1,0E0,2.5270813E1,5.320608E0,0E0,6.8492737E0,1.4162059E1,1.1919949E1,7.444462E0,0E0,7.984619E-1,6.9798737E0,2.066162E0,1.7702255E0,2.1562853E1,1.0780317E1,3.9307632E0,1.2329338E1,1.5485479E1,8.887987E-1,7.4109306E0,2.3081955E1,2.1145096E1,7.584523E0,6.9433594E0,1.6858715E1,2.0142487E1,0E0,6.0065746E0,0E0,0E0,0E0,0E0,3.3158264E0,5.551195E0,8.695221E-1,3.0266472E1,0E0,2.4747467E1,9.096698E1,2.3354462E1,4.0285713E1,1.393498E1,3.8796803E1,2.6498415E1,0E0,2.5603672E1,2.0966675E1,2.459436E1,6.5625E-1,8.4038925E-1,1.0221186E1,4.179779E0,1.1509337E0,0E0,0E0,7.5174084E0,0E0,7.2318535E0,0E0,0E0,6.954546E-1,5.0220947E0,1.15961E1,8.7353516E-1,8.6219025E-1,0E0,0E0,1.3186916E1,6.8879104E0,3.0380468E0,4.1854324E0,8.647877E0,2.7303429E0,5.353889E0,8.012819E-1,8.534439E0,0E0,3.9583334E-1,1.8115234E0,0E0,4.3769135E1,1.3280228E1,3.183823E0,4.47991E0,7.756579E-1,6.3716955E0,6.5324707E0,1.3375E0,3.510973E0,2.505342E0,1.2213196E1,1.5374546E1,0E0,7.927985E0,2.8352356E0,8.044746E0,4.389084E0,3.3601189E0,0E0,0E0,1.7667294E0,1.2512091E1,9.092007E0,2.4243742E1,5.491005E0,2.3213886E1,2.1517242E1,2.6881737E1,1.5841459E1,1.7390724E1,0E0,1.1718147E1,3.5781097E1,3.4120716E1,6.584404E0,4.5481682E-1,3.678833E0,1.176991E1,0E0,5.30249E0,3.431305E1,5.1414825E1,0E0,0E0,2.9501534E-1,0E0,0E0,0E0,3.0257568E0,1.16371E1,0E0,3.9583334E-1,0E0,5.5499716E0,0E0,6.0993576E-1,0E0,0E0,3.405243E0,4.4429736E0,1.1144067E1,1.5709686E0,0E0,0E0,0E0,0E0,0E0,0E0,0E0,0E0,0E0,0E0,0E0,0E0,0E0,0E0,0E0,0E0,0E0,0E0,0E0,0E0,0E0,0E0,0E0,0E0,0E0,0E0,0E0,0E0,0E0,0E0,0E0,0E0,0E0,0E0,0E0,0E0,0E0,0E0,0E0,0E0,0E0,0E0,0E0,0E0,0E0,0E0,0E0,0E0,0E0,0E0,0E0,0E0,0E0,0E0,0E0,0E0,0E0,0E0,0E0,0E0,0E0,0E0,0E0,0E0,0E0,0E0,0E0,0E0,0E0,0E0,0E0,0E0,0E0,0E0,0E0,0E0,0E0,0E0,0E0,0E0,0E0,0E0,0E0,0E0,0E0,0E0,0E0,0E0,0E0,0E0,0E0,0E0,0E0,0E0,0E0,0E0,0E0,0E0,0E0,0E0,0E0,0E0,0E0,0E0,0E0,0E0,0E0,0E0,0E0,0E0,0E0,0E0,0E0,0E0,0E0,0E0,0E0,0E0,0E0,0E0],"parents":[2147483647,0,0,1,1,2,2,3,3,4,4,5,5,6,6,7,7,8,8,9,9,10,10,11,11,12,12,13,13,14,14,15,15,16,16,17,17,18,18,19,19,20,20,22,22,23,23,24,24,25,25,26,26,27,27,28,28,29,29,30,30,31,31,32,32,33,33,34,34,35,35,36,36,37,37,38,38,40,40,41,41,42,42,43,43,44,44,45,45,46,46,47,47,48,48,50,50,51,51,53,53,54,54,55,55,56,56,58,58,59,59,60,60,61,61,62,62,63,63,64,64,65,65,66,66,67,67,68,68,69,69,70,70,71,71,72,72,73,73,74,74,76,76,81,81,82,82,83,83,84,84,86,86,87,87,88,88,89,89,90,90,91,91,92,92,94,94,95,95,96,96,97,97,98,98,99,99,100,100,101,101,104,104,106,106,109,109,110,110,111,111,112,112,113,113,116,116,117,117,118,118,119,119,120,120,121,121,122,122,123,123,124,124,126,126,127,127,129,129,130,130,131,131,132,132,133,133,134,134,135,135,136,136,137,137,138,138,139,139,140,140,142,142,143,143,144,144,145,145,146,146,149,149,150,150,151,151,152,152,153,153,154,154,155,155,156,156,157,157,158,158,160,160,161,161,162,162,163,163,164,164,165,165,166,166,168,168,169,169,170,170,173,173,177,177,178,178,180,180,182,182,184,184,187,187,188,188,189,189,190,190],"right_children":[2,4,6,8,10,12,14,16,18,20,22,24,26,28,30,32,34,36,38,40,42,-1,44,46,48,50,52,54,56,58,60,62,64,66,68,70,72,74,76,-1,78,80,82,84,86,88,90,92,94,-1,96,98,-1,100,102,104,106,-1,108,110,112,114,116,118,120,122,124,126,128,130,132,134,136,138,140,-1,142,-1,-1,-1,-1,144,146,148,150,-1,152,154,156,158,160,162,164,-1,166,168,170,172,174,176,178,180,-1,-1,182,-1,184,-1,-1,186,188,190,192,194,-1,-1,196,198,200,202,204,206,208,210,212,-1,214,216,-1,218,220,222,224,226,228,230,232,234,236,238,240,-1,242,244,246,248,250,-1,-1,252,254,256,258,260,262,264,266,268,270,-1,272,274,276,278,280,282,284,-1,286,288,290,-1,-1,292,-1,-1,-1,294,296,-1,298,-1,300,-1,302,-1,-1,304,306,308,310,-1,-1,-1,-1,-1,-1,-1,-1,-1,-1,-1,-1,-1,-1,-1,-1,-1,-1,-1,-1,-1,-1,-1,-1,-1,-1,-1,-1,-1,-1,-1,-1,-1,-1,-1,-1,-1,-1,-1,-1,-1,-1,-1,-1,-1,-1,-1,-1,-1,-1,-1,-1,-1,-1,-1,-1,-1,-1,-1,-1,-1,-1,-1,-1,-1,-1,-1,-1,-1,-1,-1,-1,-1,-1,-1,-1,-1,-1,-1,-1,-1,-1,-1,-1,-1,-1,-1,-1,-1,-1,-1,-1,-1,-1,-1,-1,-1,-1,-1,-1,-1,-1,-1,-1,-1,-1,-1,-1,-1,-1,-1,-1,-1,-1,-1,-1,-1,-1,-1,-1],"split_conditions":[5.20648E1,4.931E2,4.1970694E2,-1.1005902E0,-1.2E1,2.084429E2,1.09206E2,2.9769444E0,3.51365E1,3.9860242E2,-2.138889E1,1.9180555E0,1.7423391E3,3.06E0,7.7667224E-1,-1.1111111E1,1.27253E1,-1.1E1,4.36E2,-3.52E0,2.881E2,3.5606254E-2,3.477E2,3.9270833E0,4.406E2,3.207862E2,3.44E0,6.8819447E0,4.6793054E2,-1.1111111E1,1.7150496E1,4.36364E1,-1.2E1,2.87713E1,-1.3E1,2.622532E2,2.843E2,-1.5107639E1,3.256E2,-4.702467E-3,-3.8E0,4.88E2,-1.5E1,9.215E0,3.486E2,3.390816E2,3.562E2,2.2E0,3.154E2,-9.886694E-3,2.495E0,1.7584201E0,8.069552E-3,-3.6E1,1.710153E2,2.0851042E0,1.4082801E1,4.5221925E-2,3.905E2,-2.8E1,4.521E2,4.722E2,-2.257986E1,-2.5E-1,3.01E0,4.2104637E1,-1.8179166E0,4.175E2,6.733262E2,2.25427E1,3.598E2,-5.59375E0,2.4E1,2.4424891E0,1.935764E-1,-1.3915098E-2,2.409861E0,7.3370994E-3,-4.8389434E-4,-8.251167E-3,5.9152137E-2,6.223941E0,-1.2944445E1,-6.93E0,5.0774582E2,-2.3388952E-2,9.76282E1,3.09016E1,4.1761823E2,2.7708334E-1,9.4E-1,1.371233E2,4.94E0,-7.3719206E-3,3.97E2,2.992E2,4.608E2,7.372747E2,2.82E0,5.024E2,2.2E0,1.71E0,-7.0461007E-3,7.1273446E-3,2.284914E0,-1.5710061E-2,3.52E2,-1.4219055E-2,2.0910085E-3,4.845E2,1.6105802E3,3.287E2,9E0,4.651E2,-8.502928E-3,1.2328923E-2,-1.3E1,3.455E2,1.48E0,4.3835278E2,-2.7E1,1.61E0,4.393E2,-2E0,-7.77E0,-1.8623173E-3,3.01E0,1.9548612E0,-3.2417394E-2,-2E0,-1.9121529E1,-3.9E1,1.2293804E0,3.568E2,1.58E0,5.5341565E2,4.456E2,-9.972222E0,3.6047E1,7.4277776E-1,7.1063046E0,1.7937405E-2,2.6708682E0,1.928004E3,-6.14E0,2.92E0,2.09E0,4.23447E-2,-1.9443441E-2,5.533E2,1.015997E2,3.9138E0,3.15E0,1.98E0,-2E1,9.377639E-1,-2.303125E-1,3E0,3.238E2,4.9292925E-3,-5.228299E-1,3.256E2,-3.8541666E-1,4.1829688E2,3.561E2,5.118089E2,1.34402E1,-6.681168E-3,-3E1,7.88959E2,1.55529E2,-7.813305E-3,9.082151E-3,3.29E0,1.8147457E-2,-3.3675402E-2,4.6316136E-2,3.066E2,4.101389E2,5.5431905E-3,3.79E0,1.4026961E-2,3.72E0,-9.98601E-3,6E0,9.072715E-3,-3.1692054E-2,1.3893586E0,-6.277778E-2,4.106E2,5.98E0,5.4107573E-2,-6.3052657E-3,1.3930497E-2,-3.1408488E-3,-1.0661823E-2,1.712501E-2,-8.411938E-3,4.193312E-3,7.6544285E-4,-6.4068674E-3,-3.0834025E-2,1.6415555E-2,1.12199485E-2,-1.9783342E-2,1.7975533E-2,-3.0891059E-2,-3.6245774E-2,2.3311501E-2,-2.1676315E-2,9.793043E-4,-1.1980349E-2,1.6403204E-2,2.062496E-2,-5.352074E-3,2.4676735E-2,-4.9459906E-3,1.1313888E-2,-1.3556234E-2,-1.3161034E-3,-2.0126153E-2,2.0042837E-3,-2.8021557E-2,-8.027918E-3,2.3862172E-2,3.6732223E-2,-4.155475E-3,2.3835897E-3,-3.18409E-2,-2.9300941E-2,1.3828802E-2,-1.5037331E-2,6.023222E-3,6.919718E-3,-1.4306576E-3,3.1749846E-3,-1.1147129E-2,-3.6741258E-3,-1.25416545E-2,7.8537045E-3,-6.0758055E-3,-6.144482E-3,6.6679954E-3,2.9333962E-2,-1.0039816E-2,-3.7878216E-3,2.1396095E-2,2.069509E-2,-5.642897E-3,-1.284042E-3,1.7066369E-2,-9.470302E-3,7.3945257E-3,1.4034358E-2,-1.04485005E-2,-1.3184497E-2,2.1954788E-2,6.8344832E-3,-1.0547349E-2,1.7405225E-2,-2.5710375E-3,2.4107516E-2,-1.1066097E-2,3.1639875E-3,1.6595924E-2,1.0752863E-2,-5.458978E-3,2.709694E-2,-2.4479335E-2,-9.720805E-3,9.317142E-3,2.2848368E-2,-2.1133358E-2,2.3835897E-3,-1.32821025E-2,-9.00572E-3,7.789043E-3,1.1684129E-2,-1.9459069E-3,-1.7763376E-4,-2.2304177E-2,3.3492114E-2,-4.5278072E-3,4.8427223E-3,-4.9130917E-3,-4.049629E-4,4.125595E-2,2.3810912E-2,-1.10797165E-2,-8.749771E-3,3.7550684E-2,-3.6297366E-2,-1.8019939E-2,-2.8754713E-3,2.1296818E-2,-3.1182325E-2,2.7860655E-2,1.2941343E-2,-4.3118E-4,-3.6222339E-3,-1.1408329E-4,2.70612E-2,8.491687E-3,1.5896708E-2,5.320635E-2,1.1591923E-2,-1.5400291E-3,-3.368436E-2,5.1503386E-2,4.1932054E-2,4.746878E-3],"split_indices":[41,12,13,21,33,41,41,28,41,13,36,28,42,18,52,37,41,30,1,14,11,0,11,37,1,13,3,37,12,37,50,39,35,40,34,5,11,37,11,0,0,1,33,40,9,13,1,27,11,0,28,29,0,35,5,29,50,0,1,35,10,7,37,14,23,50,21,11,42,42,11,37,34,52,21,0,28,0,0,0,0,29,36,0,12,0,5,38,13,21,28,41,23,0,11,1,11,5,14,10,24,27,0,0,52,0,10,0,0,1,39,11,33,1,0,0,31,8,26,12,30,3,7,4,0,0,3,37,0,35,37,30,52,1,23,13,1,36,5,28,50,0,29,5,17,15,27,0,0,6,50,41,23,24,34,52,21,31,11,0,21,10,37,13,6,42,5,0,33,39,5,0,0,3,0,0,0,11,12,0,0,0,15,0,30,0,0,52,20,6,18,0,0,0,0,0,0,0,0,0,0,0,0,0,0,0,0,0,0,0,0,0,0,0,0,0,0,0,0,0,0,0,0,0,0,0,0,0,0,0,0,0,0,0,0,0,0,0,0,0,0,0,0,0,0,0,0,0,0,0,0,0,0,0,0,0,0,0,0,0,0,0,0,0,0,0,0,0,0,0,0,0,0,0,0,0,0,0,0,0,0,0,0,0,0,0,0,0,0,0,0,0,0,0,0,0,0,0,0,0,0,0,0,0,0,0,0,0,0,0,0],"split_type":[0,0,0,0,0,0,0,0,0,0,0,0,0,0,0,0,0,0,0,0,0,0,0,0,0,0,0,0,0,0,0,0,0,0,0,0,0,0,0,0,0,0,0,0,0,0,0,0,0,0,0,0,0,0,0,0,0,0,0,0,0,0,0,0,0,0,0,0,0,0,0,0,0,0,0,0,0,0,0,0,0,0,0,0,0,0,0,0,0,0,0,0,0,0,0,0,0,0,0,0,0,0,0,0,0,0,0,0,0,0,0,0,0,0,0,0,0,0,0,0,0,0,0,0,0,0,0,0,0,0,0,0,0,0,0,0,0,0,0,0,0,0,0,0,0,0,0,0,0,0,0,0,0,0,0,0,0,0,0,0,0,0,0,0,0,0,0,0,0,0,0,0,0,0,0,0,0,0,0,0,0,0,0,0,0,0,0,0,0,0,0,0,0,0,0,0,0,0,0,0,0,0,0,0,0,0,0,0,0,0,0,0,0,0,0,0,0,0,0,0,0,0,0,0,0,0,0,0,0,0,0,0,0,0,0,0,0,0,0,0,0,0,0,0,0,0,0,0,0,0,0,0,0,0,0,0,0,0,0,0,0,0,0,0,0,0,0,0,0,0,0,0,0,0,0,0,0,0,0,0,0,0,0,0,0,0,0,0,0,0,0,0,0,0,0,0,0,0,0,0,0,0,0,0,0,0,0,0,0,0,0],"sum_hessian":[5.0516E4,2.6848E4,2.3668E4,2.3269E4,3.579E3,1.1073E4,1.2595E4,1.976E3,2.1293E4,1.834E3,1.745E3,6.281E3,4.792E3,2.153E3,1.0442E4,1.285E3,6.91E2,1.9102E4,2.191E3,2.1E1,1.813E3,4.3E2,1.315E3,3.456E3,2.825E3,4.659E3,1.33E2,1.806E3,3.47E2,1.09E2,1.0333E4,5.66E2,7.19E2,3.96E2,2.95E2,1.629E3,1.7473E4,1.995E3,1.96E2,1.8E1,3E0,1.7E1,1.796E3,5.69E2,7.46E2,2.872E3,5.84E2,2.332E3,4.93E2,7.7E1,4.582E3,1.22E2,1.1E1,1.74E3,6.6E1,1.49E2,1.98E2,8.4E1,2.5E1,9.88E2,9.345E3,1.57E2,4.09E2,1.28E2,5.91E2,1.8E2,2.16E2,1.3E1,2.82E2,1.46E3,1.69E2,7.7E1,1.7396E4,1.08E2,1.887E3,2.7E1,1.69E2,2E0,1E0,1.4E1,3E0,1.58E3,2.16E2,3.64E2,2.05E2,5.5E1,6.91E2,6.22E2,2.25E3,3.69E2,2.15E2,1.94E3,3.92E2,4.6E1,4.47E2,2.836E3,1.746E3,8E0,1.14E2,4.3E1,1.697E3,3.6E1,3E1,2.5E1,1.24E2,9E0,1.89E2,2.4E1,1E0,1E1,9.78E2,8.61E2,8.484E3,1.55E2,2E0,3.5E1,3.74E2,7E1,5.8E1,5.51E2,4E1,1.45E2,3.5E1,2.6E1,1.9E2,1E1,3E0,2.74E2,8E0,4.88E2,9.72E2,5.1E1,1.18E2,1.9E1,5.8E1,1.7385E4,1.1E1,7E1,3.8E1,1.093E3,7.94E2,7.1E1,9.8E1,1.477E3,1.03E2,1.64E2,5.2E1,1E0,3.63E2,8.9E1,1.16E2,3.06E2,3.85E2,3.03E2,3.19E2,2.139E3,1.11E2,1.26E2,2.43E2,1.8E1,1.97E2,1.324E3,6.16E2,3.49E2,4.3E1,3.61E2,8.6E1,2.2E1,2.814E3,1.315E3,4.31E2,1E0,7E0,1.13E2,1E0,2E1,2.3E1,9.21E2,7.76E2,3.3E1,3E0,1.2E1,1.12E2,8E0,1.81E2,1E0,9E0,8.88E2,9E1,6.1E1,8E2,8.483E3,1E0,1.54E2,1E0,3.49E2,2.5E1,1.1E1,5.9E1,1.1E1,4.7E1,5.4E2,1.1E1,1.4E1,2.6E1,3E0,1.42E2,1.1E1,2.4E1,2.5E1,1E0,1.1E1,1.79E2,2E0,1E0,2.72E2,2E0,1.64E2,3.24E2,1.28E2,8.44E2,1.4E1,3.7E1,7E0,1.11E2,1.8E1,1E0,9E0,4.9E1,1.7378E4,7E0,2E0,9E0,6.4E1,6E0,3E0,3.5E1,1.19E2,9.74E2,3.5E1,7.59E2,2.5E1,7.3E1,1.465E3,1.2E1,2.1E1,8.2E1,1.5E2,1.4E1,4E1,1.2E1,8.7E1,2E0,8.8E1,2.8E1,1E1,2.96E2,2.79E2,1.06E2,2.97E2,6E0,3.3E1,2.86E2,1.5E2,1.989E3,4.9E1,6.2E1,2.3E1,1.03E2,2.4E1,2.19E2,1.3E1,1.84E2,2.65E2,1.059E3,2.54E2,3.62E2,3.4E2,9E0,2E0,4.1E1,3.57E2,4E0,2.7E1,5.9E1,1.8E1,2.796E3,1.259E3,5.6E1,2.05E2,2.26E2,1.1E2,3E0,5E0,9.16E2,1.7E1,7.59E2,1E0,2E0,7.7E1,3.5E1,1.75E2,6E0,1.05E2,7.83E2,6.5E1,2.5E1,2.7E1,3.4E1,7.86E2,1.4E1],"tree_param":{"num_deleted":"0","num_feature":"53","num_nodes":"311","size_leaf_vector":"1"}},{"base_weights":[4.552923E-4,-3.1401542E-1,3.5717607E-1,-4.0307263E-1,2.6494414E-1,2.1589111E-1,4.5149016E-1,-9.054122E-2,-4.3207008E-1,-2.262693E-2,3.62243E-1,3.2054844E-1,7.7432E-2,3.3679092E-1,4.8330182E-1,-2.2667184E-1,1.6257225E-1,-4.5474532E-1,-2.3426095E-1,-4.9385247E-1,1.5082957E-1,-4.4444445E-1,3.9309275E-1,3.785589E-1,1.8028846E-3,-6.505973E-2,2.6956272E-1,-2.3181818E-1,3.576949E-1,5.6338027E-2,4.8600417E-1,-4.18018E-1,-8.128415E-2,-1.7632242E-2,4.037162E-1,-2.5107166E-1,-4.7375652E-1,-2.732966E-1,1.6243654E-1,1.25E-2,-2.4897119E-2,-2.5561798E-1,2.9938272E-1,2.0833334E-2,-2.4734043E-2,-2.888889E-1,4.050533E-1,-8.006536E-2,4.1140577E-1,1.2746586E-1,-4.7413793E-1,-1.137227E-1,3.6401674E-1,3.1578946E-1,-3.3467743E-1,-4.698795E-1,2.4107143E-2,6.382979E-2,3.9407098E-1,-2.4218751E-2,2.4375001E-2,3.2934132E-1,4.8836568E-1,-4.3131867E-1,3.5E-1,1.6366612E-3,-2.4795083E-2,-3.5359117E-1,2.626728E-1,-3.9285713E-1,4.416961E-1,-3.0101696E-1,2.1383648E-1,-4.8747912E-1,-4.224628E-1,1.10091746E-1,-2.9528603E-1,-2.4107143E-2,2.6764706E-1,2.4285715E-2,-4.340278E-1,4.244032E-1,-1.3181818E-1,-2.4305556E-2,2.2499999E-2,2.717014E-1,4.4407558E-1,2.4550898E-1,-4.6785715E-1,4.3947932E-1,2.1548508E-1,-2.3555556E-1,3.1494254E-1,-4.854651E-1,1.6666668E-2,-1.6140257E-1,2.5941423E-1,4.2986426E-1,-4.2105263E-1,-2.443182E-2,3.3810434E-1,-4.3119267E-1,3.4375E-1,-2.4683544E-2,-0E0,3.360215E-1,-2.8819445E-1,2.90529E-1,4.7596478E-1,2.4818841E-2,-4.5E-1,4.8959392E-1,2.6984128E-1,-4.6044624E-1,-1.574074E-1,-1.25E-2,2.2222223E-2,4.4055945E-1,-1.3219616E-1,-4.7569445E-1,1.18421055E-1,-4.4444445E-1,3.6125654E-1,-2.3076924E-2,1.25E-2,4.690909E-1,-2.2222223E-2,-1.00635596E-1,-3.9492032E-1,4.2543858E-1,-3.152174E-1,-4.906906E-1,-3.4006733E-1,-4.29079E-1,2.4324325E-1,3.943662E-1,-4.1025642E-1,-3.5761106E-1,-1.2887597E-1,4.7916666E-1,1.1111111E-1,-4.539007E-1,1.875E-2,-3.611111E-1,4.625E-1,-4.2465752E-1,4.3421054E-1,3.7227723E-1,-4.375E-1,4.9614727E-1,3.6662453E-1,2.4798388E-2,-4.659091E-1,2E-1,-4.8897058E-1,2.927981E-1,4.8246527E-1,-4.0366971E-1,3.7266356E-1,4.262295E-1,-4.7878787E-1,4.861963E-1,-1.9545455E-1,1.25E-2,-4.9122807E-1,3.75E-1,-1.9680548E-1,3.8423645E-1,-4.3243244E-1,-2.1875E-2,4.602804E-1,-2.3611112E-2,1.25E-2,4.1022336E-1,1.3202934E-1,-4.854369E-1,2.1428572E-2,2.3214286E-2,-1.6666668E-2,1.6666668E-2,-1.6666668E-2,-1.4285715E-1,4.4407895E-1,-4.55E-1,8.888889E-2,3.7386018E-1,-1.5322581E-1,4.7994563E-1,-2.1428572E-2,-2.4137931E-2,1.25E-2,4.4573322E-1,4.9505466E-1,-2.3076924E-2,4.509804E-1,-2.3608249E-2,1.1111111E-2,1.6666668E-2,-1.6875E-2,-2.1428572E-2,2.4087591E-2,3.3536588E-3,-1.7522322E-2,1.875E-2,-2.4822695E-2,-1.4705883E-2,2.1590909E-2,-2.4038462E-2,1.25E-2,-2.2916667E-2,2.0694446E-2,2.4169741E-2,-2.0000001E-2,1.4619882E-2,-1.6142385E-2,-2.1127503E-2,4.0178574E-3,-1.5625E-2,2.3831775E-2,3.3333336E-3,-2.4218751E-2,-2.45492E-2,1.25E-2,-2.0199275E-2,2.3863636E-2,1.7708333E-2,-2.1706546E-2,-2.2499999E-2,2.4107143E-2,2.3076924E-2,-1.4285715E-2,1.875E-2,-2.4305556E-2,-3.642384E-3,-1.9623876E-2,7.5187967E-3,-1.1263021E-2,-1.25E-2,2.4647888E-2,-1.8269232E-2,1.3851352E-2,4.166667E-3,-2.3713237E-2,-2.34375E-2,1.6666668E-2,2.3792615E-2,-5.5555557E-3,1.25E-2,-2.389706E-2,-6.25E-3,2.4285715E-2,1.9804528E-2,-1.12499995E-2,2.0000001E-2,-2.4632353E-2,-1.6666668E-2,2.4892798E-2,2.4107143E-2,1.3376169E-2,-2.4418605E-2,1.25E-2,1.875E-2,-1.25E-2,-0E0,-2.4813434E-2,2.1398304E-2,-8.720931E-4,1.775148E-2,2.4511432E-2,-2.4242425E-2,1.818182E-2,2.1928571E-2,3.7974683E-3,-1.875E-2,2.3706896E-2,-0E0,-2.4233129E-2,-6.25E-3,2.4613004E-2,1.5714286E-2,-2.138158E-2,-2.4851192E-2,-6.25E-3,2.2772279E-2,-7.8125E-3,-1.6037736E-2,-1.4725568E-3,3.6585366E-3,2.3006136E-2,1.25E-2,-2.2916667E-2,-2.0000001E-2,2.3928571E-2,2.1849867E-2,-1.25E-2,1.8363638E-2,-1.7407408E-2,1.25E-2,-2.4754902E-2,-1.9318182E-2,1.25E-2,2.3809524E-2,-2.0833334E-2,-2.4736842E-2,1.25E-2,1.484375E-2,-1.9642858E-2,-6.6666673E-3,1.9883351E-2,-1.3576159E-2,1.736111E-2,2.0037454E-2,2.4854772E-2,1.6377006E-2,2.4910072E-2,2.493412E-2,2.2921411E-2,-6.25E-3,2.4479168E-2],"categories":[],"categories_nodes":[],"categories_segments":[],"categories_sizes":[],"default_left":[0,0,0,0,0,0,0,0,0,0,0,0,0,0,0,0,0,0,0,0,0,0,0,0,0,0,0,0,0,0,0,0,0,0,0,0,0,0,0,0,0,0,0,0,0,0,0,0,0,0,0,0,0,0,0,0,0,0,0,0,0,0,0,0,0,0,0,0,0,0,0,0,0,0,0,0,0,0,0,0,0,0,0,0,0,0,0,0,0,0,0,0,0,0,0,0,0,0,0,0,0,0,0,0,0,0,0,0,0,0,0,0,0,0,0,0,0,0,0,0,0,0,0,0,0,0,0,0,0,0,0,0,0,0,0,0,0,0,0,0,0,0,0,0,0,0,0,0,0,0,0,0,0,0,0,0,0,0,0,0,0,0,0,0,0,0,0,0,0,0,0,0,0,0,0,0,0,0,0,0,0,0,0,0,0,0,0,0,0,0,0,0,0,0,0,0,0,0,0,0,0,0,0,0,0,0,0,0,0,0,0,0,0,0,0,0,0,0,0,0,0,0,0,0,0,0,0,0,0,0,0,0,0,0,0,0,0,0,0,0,0,0,0,0,0,0,0,0,0,0,0,0,0,0,0,0,0,0,0,0,0,0,0,0,0,0,0,0,0,0,0,0,0,0,0,0,0,0,0,0,0,0,0,0,0,0,0,0,0,0,0,0,0,0,0,0,0,0,0,0,0,0,0,0,0,0,0,0,0,0,0,0,0,0,0,0,0,0,0],"id":1,"left_children":[1,3,5,7,9,11,13,15,17,19,21,23,25,27,29,31,33,35,37,39,41,43,45,47,49,51,53,55,57,59,61,63,65,67,69,71,73,75,77,-1,-1,79,81,-1,-1,83,85,87,89,91,93,95,97,99,101,103,-1,105,107,-1,-1,109,111,113,115,117,-1,119,121,123,125,127,129,131,133,135,137,-1,139,-1,141,143,145,-1,-1,147,149,151,153,155,157,159,161,163,-1,165,167,169,171,-1,173,175,177,-1,179,181,183,185,187,-1,189,191,193,195,197,-1,-1,199,201,203,205,207,209,-1,-1,211,-1,213,215,217,219,221,223,225,227,229,231,233,235,237,239,241,-1,243,245,247,249,251,253,255,257,-1,259,261,263,265,267,269,271,273,275,277,279,-1,281,283,285,287,289,-1,291,-1,-1,293,295,297,-1,-1,-1,-1,-1,299,301,303,305,307,309,311,-1,-1,-1,313,315,-1,317,-1,-1,-1,-1,-1,-1,-1,-1,-1,-1,-1,-1,-1,-1,-1,-1,-1,-1,-1,-1,-1,-1,-1,-1,-1,-1,-1,-1,-1,-1,-1,-1,-1,-1,-1,-1,-1,-1,-1,-1,-1,-1,-1,-1,-1,-1,-1,-1,-1,-1,-1,-1,-1,-1,-1,-1,-1,-1,-1,-1,-1,-1,-1,-1,-1,-1,-1,-1,-1,-1,-1,-1,-1,-1,-1,-1,-1,-1,-1,-1,-1,-1,-1,-1,-1,-1,-1,-1,-1,-1,-1,-1,-1,-1,-1,-1,-1,-1,-1,-1,-1,-1,-1,-1,-1,-1,-1,-1,-1,-1,-1,-1,-1,-1,-1,-1,-1,-1,-1,-1,-1,-1,-1,-1],"loss_changes":[5.66702E3,1.3844556E3,3.152959E2,2.1084766E2,1.0017781E2,1.3730414E2,5.1624268E1,6.815735E1,9.5404785E1,7.412833E1,6.6745026E1,9.979297E1,1.1174322E2,3.67518E1,1.2790283E1,3.5741745E1,3.0078133E1,7.3849365E1,3.3988266E1,8.6680984E-1,4.010785E1,4.4887695E0,2.1137299E1,6.881683E1,4.9820805E1,4.8984436E1,4.865161E1,1.8922867E1,3.1787292E1,1.6788712E1,3.9230957E0,5.820366E0,2.5167278E1,3.747876E1,9.128639E0,3.798259E1,1.2091797E1,1.6859756E1,1.3488901E1,0E0,0E0,2.3753262E1,2.6255688E1,0E0,0E0,6.7763886E0,1.3060303E1,3.874891E1,2.3341614E1,4.492444E1,1.7532921E0,3.750997E1,1.2536068E1,2.9155502E1,8.267567E0,9.2786217E-1,0E0,3.1620989E1,2.2315308E1,0E0,0E0,2.196304E1,2.786377E0,4.2837143E0,6.7777777E-1,3.594977E1,0E0,1.0488127E1,1.5287686E1,7.3351645E-1,7.078491E0,2.7714584E1,1.7933983E1,6.3552246E0,1.6378784E1,1.6285255E1,1.953534E1,0E0,5.57553E0,0E0,2.4854088E0,1.1448959E1,1.8417494E1,0E0,0E0,4.1248104E1,7.7147217E0,2.9987286E1,2.0719013E0,2.335205E1,5.2312775E1,3.6421764E1,3.8117264E1,8.518181E-1,0E0,3.5547512E1,2.0805681E1,6.031761E0,7.7046776E-1,0E0,2.3308777E1,5.291506E0,1.4605653E0,0E0,6.666667E-1,9.688269E0,9.097986E0,4.339621E1,5.5240784E0,0E0,8.086209E-1,2.3686523E0,8.554478E0,4.048912E0,4.8849535E0,0E0,0E0,5.326088E0,2.042059E1,2.729206E0,5.039966E0,8.012819E-1,8.428854E0,0E0,0E0,3.6119995E0,0E0,4.1317345E1,1.3218262E1,4.4558887E0,3.003827E0,3.052246E0,1.5708946E1,1.463208E1,6.34474E0,3.375329E0,2.505342E0,1.36035E1,1.3922293E1,8.4727097E-1,7.927985E0,1.5820942E0,0E0,1.5017359E0,2.8101196E0,2.7437048E0,1.1551695E0,7.271805E0,3.5224266E0,1.8213806E0,8.926384E0,0E0,8.296776E-1,4.875E-1,4.8532104E-1,3.5526E1,2.675232E0,6.965807E0,8.336578E0,2.5193262E0,4.641037E-1,1.2697296E0,1.3152897E1,0E0,3.0083084E-1,5.02862E0,3.6353813E1,4.7582703E0,7.685809E-1,0E0,3.5588112E0,0E0,0E0,2.0685043E1,4.6327927E1,8.556061E-1,0E0,0E0,0E0,0E0,0E0,3.4448051E0,4.3996716E0,2.9251328E0,4.625471E0,1.1970734E1,1.1105793E1,1.798706E0,0E0,0E0,0E0,7.3218994E0,1.0476074E0,0E0,1.195159E0,0E0,0E0,0E0,0E0,0E0,0E0,0E0,0E0,0E0,0E0,0E0,0E0,0E0,0E0,0E0,0E0,0E0,0E0,0E0,0E0,0E0,0E0,0E0,0E0,0E0,0E0,0E0,0E0,0E0,0E0,0E0,0E0,0E0,0E0,0E0,0E0,0E0,0E0,0E0,0E0,0E0,0E0,0E0,0E0,0E0,0E0,0E0,0E0,0E0,0E0,0E0,0E0,0E0,0E0,0E0,0E0,0E0,0E0,0E0,0E0,0E0,0E0,0E0,0E0,0E0,0E0,0E0,0E0,0E0,0E0,0E0,0E0,0E0,0E0,0E0,0E0,0E0,0E0,0E0,0E0,0E0,0E0,0E0,0E0,0E0,0E0,0E0,0E0,0E0,0E0,0E0,0E0,0E0,0E0,0E0,0E0,0E0,0E0,0E0,0E0,0E0,0E0,0E0,0E0,0E0,0E0,0E0,0E0,0E0,0E0,0E0,0E0,0E0,0E0,0E0,0E0,0E0,0E0,0E0,0E0,0E0,0E0,0E0,0E0],"parents":[2147483647,0,0,1,1,2,2,3,3,4,4,5,5,6,6,7,7,8,8,9,9,10,10,11,11,12,12,13,13,14,14,15,15,16,16,17,17,18,18,19,19,20,20,21,21,22,22,23,23,24,24,25,25,26,26,27,27,28,28,29,29,30,30,31,31,32,32,33,33,34,34,35,35,36,36,37,37,38,38,41,41,42,42,45,45,46,46,47,47,48,48,49,49,50,50,51,51,52,52,53,53,54,54,55,55,57,57,58,58,61,61,62,62,63,63,64,64,65,65,67,67,68,68,69,69,70,70,71,71,72,72,73,73,74,74,75,75,76,76,78,78,80,80,81,81,82,82,85,85,86,86,87,87,88,88,89,89,90,90,91,91,92,92,93,93,95,95,96,96,97,97,98,98,100,100,101,101,102,102,104,104,105,105,106,106,107,107,108,108,110,110,111,111,112,112,113,113,114,114,117,117,118,118,119,119,120,120,121,121,122,122,125,125,127,127,128,128,129,129,130,130,131,131,132,132,133,133,134,134,135,135,136,136,137,137,138,138,139,139,140,140,141,141,143,143,144,144,145,145,146,146,147,147,148,148,149,149,150,150,152,152,153,153,154,154,155,155,156,156,157,157,158,158,159,159,160,160,161,161,162,162,164,164,165,165,166,166,167,167,168,168,170,170,173,173,174,174,175,175,181,181,182,182,183,183,184,184,185,185,186,186,187,187,191,191,192,192,194,194],"right_children":[2,4,6,8,10,12,14,16,18,20,22,24,26,28,30,32,34,36,38,40,42,44,46,48,50,52,54,56,58,60,62,64,66,68,70,72,74,76,78,-1,-1,80,82,-1,-1,84,86,88,90,92,94,96,98,100,102,104,-1,106,108,-1,-1,110,112,114,116,118,-1,120,122,124,126,128,130,132,134,136,138,-1,140,-1,142,144,146,-1,-1,148,150,152,154,156,158,160,162,164,-1,166,168,170,172,-1,174,176,178,-1,180,182,184,186,188,-1,190,192,194,196,198,-1,-1,200,202,204,206,208,210,-1,-1,212,-1,214,216,218,220,222,224,226,228,230,232,234,236,238,240,242,-1,244,246,248,250,252,254,256,258,-1,260,262,264,266,268,270,272,274,276,278,280,-1,282,284,286,288,290,-1,292,-1,-1,294,296,298,-1,-1,-1,-1,-1,300,302,304,306,308,310,312,-1,-1,-1,314,316,-1,318,-1,-1,-1,-1,-1,-1,-1,-1,-1,-1,-1,-1,-1,-1,-1,-1,-1,-1,-1,-1,-1,-1,-1,-1,-1,-1,-1,-1,-1,-1,-1,-1,-1,-1,-1,-1,-1,-1,-1,-1,-1,-1,-1,-1,-1,-1,-1,-1,-1,-1,-1,-1,-1,-1,-1,-1,-1,-1,-1,-1,-1,-1,-1,-1,-1,-1,-1,-1,-1,-1,-1,-1,-1,-1,-1,-1,-1,-1,-1,-1,-1,-1,-1,-1,-1,-1,-1,-1,-1,-1,-1,-1,-1,-1,-1,-1,-1,-1,-1,-1,-1,-1,-1,-1,-1,-1,-1,-1,-1,-1,-1,-1,-1,-1,-1,-1,-1,-1,-1,-1,-1,-1,-1,-1],"split_conditions":[5.20648E1,4.931E2,3.9960538E2,-1.1005902E0,5.325E2,2.1791666E0,1.190129E2,2.9769444E0,3.51365E1,3.154E2,3.486E2,3.8611112E0,2.489726E2,3.7889584E2,3.486E2,1.03004E1,1.27253E1,-1.1E1,4.36E2,1.18E0,2.2744617E0,3.173E2,3.084E2,3.461E2,2.2935339E1,4.597E2,1.7423391E3,4.2E2,1.5754397E1,5.25E2,8.0175966E-1,4.389762E0,-6.0416665E0,2.87713E1,-1.3E1,2.622532E2,2.11538E1,-1.5107639E1,3.256E2,2.8052313E-2,-1.9474788E-2,1.23E0,1.8267362E-1,3.389843E-2,-1.6834337E-2,5.84E2,-4E0,3.097222E2,9.008798E2,7.305556E-2,3.966E2,2.2E0,3.715E2,3.1983734E2,3.12E0,7.5E0,2.4751252E-2,4.234E2,4.6391095E2,-6.250018E-3,7.38337E-2,-1.1111111E1,7.7430553E0,4.3835278E2,-1.32E0,2.33788E1,-2.5477124E-2,4.141446E1,-1.8179166E0,4.717E2,6.733262E2,2.25427E1,2.01E0,1.794421E2,4.8206668E2,2.4424891E0,8.123958E-1,-1.3219344E-2,2.409861E0,1.510452E-2,2.39E0,7.3E-1,4.361E2,-3.8230497E-2,6.340346E-2,-4.392361E0,5.33106E1,-9E0,6.2E-1,8.63993E1,3.2875833E2,6.98069E1,3.568E2,-6E0,7.086843E-4,-1.7E1,2.5633684E1,3.126E2,2.16E0,-9.511334E-3,4.588E2,2.1567818E1,-1.78E0,-3.044655E-2,3.83E2,1.26824E1,2.4795487E0,1.3828472E0,2.2849316E3,3.7913997E-2,3.905E2,1.7150496E1,-9.4E-1,4.171644E2,-2E1,-1.12819675E-4,3.673038E-3,3.751E2,-1.2E1,1.61E0,-2.3E1,-2E0,-7.77E0,-1.769203E-3,3.966711E-2,1.9E1,-3.0796522E-2,-2E0,1.353205E2,1.2293804E0,-3.9E1,5.5341565E2,4.596E2,2.867E2,-2.9371527E-1,-9.972222E0,3.6047E1,7.4277776E-1,1.4E0,-2.5E0,2.6708682E0,4.794E2,6.177455E-3,-3.52E0,6.223941E0,-1.8E1,-1.8277779E1,-7E0,-3.6E0,3.8096927E2,-1.4527778E1,2.1238137E-2,3.616E2,1.39E0,1.9668198E0,6.45734E1,3.104E2,3.390816E2,3.667972E2,6.66524E1,3.104E2,8.9E-1,3.755E2,1.32339E-3,3.902E2,1.85E0,1.2534722E0,3.624217E2,-1.68E0,-1.1160463E-2,-2.2E1,-6.8410872E-3,1.4835608E-2,7.88959E2,2.1879168E0,-5.35E0,8.216581E-3,8.29587E-3,-1.9531254E-2,7.0561765E-4,-1.560253E-3,4.084E2,2.19488E2,1.5556177E1,6.2E1,3.199E2,2.017747E2,1.9647284E1,-7.6516154E-3,-1.3804314E-2,1.9864559E-3,1.7340572E0,3.0587847E0,-2.282852E-3,6E0,-2.6751509E-2,1.0272175E-3,1.3917294E-2,-1.3524622E-2,-2.9412681E-2,1.3569347E-2,1.2320221E-3,-1.0293866E-2,1.7076755E-2,-2.9530717E-2,-2.9147929E-2,3.1256E-2,-2.05925E-2,9.303391E-4,-1.1381335E-2,1.5583045E-2,2.3548448E-2,-6.6649914E-4,7.6380223E-3,-1.1068649E-2,-1.7653314E-2,8.98577E-3,-7.626522E-3,2.3980666E-2,1.9040704E-3,-1.759981E-2,-3.1270143E-2,2.5447668E-3,-1.5905345E-2,2.188393E-2,1.477319E-3,-1.2755007E-2,-1.8984646E-2,1.5659982E-2,6.5737306E-3,-1.359126E-3,3.0162334E-3,-1.0589773E-2,-1.3717592E-3,-1.1142922E-2,1.7801523E-3,-5.211097E-3,-5.504549E-4,1.7136056E-2,-5.8372556E-3,6.334597E-3,9.877384E-4,-1.0121614E-2,-4.550618E-3,6.970245E-3,2.0119136E-2,-2.7492046E-4,1.0734588E-2,-1.7938608E-2,-7.1340206E-4,1.2292335E-2,1.8386973E-2,-3.7988962E-3,2.8547496E-2,-1.1379135E-2,-7.924179E-3,3.1298883E-2,3.228242E-2,7.414371E-3,-7.600224E-3,2.7460575E-3,2.507627E-4,-4.7106147E-4,6.2400104E-5,-1.0416246E-2,9.865445E-3,-2.1273494E-4,2.4977852E-2,3.0958517E-2,-1.4850289E-2,7.0899874E-3,2.2782391E-2,9.843231E-4,-1.0798973E-2,2.2906912E-2,-9.588475E-3,-2.625152E-2,-7.002771E-4,1.378029E-2,4.8892023E-3,-2.326088E-2,-1.5511132E-2,-1.7050266E-3,6.1430666E-3,-2.867043E-4,-1.0519567E-2,-1.0616899E-3,2.1660775E-3,1.4600748E-2,2.807814E-3,-2.4308307E-2,-1.5206933E-3,2.6268376E-2,2.4573803E-2,-8.294934E-3,3.504811E-2,-8.325666E-3,5.5360793E-5,-3.5237767E-2,-2.6520551E-3,2.462089E-3,7.248703E-3,-5.6146025E-3,-6.677225E-3,1.3582504E-2,1.50175635E-2,-1.3114482E-2,-2.3788454E-3,1.6521035E-2,-2.1098019E-3,2.3141205E-3,2.9164834E-2,2.6737517E-2,1.5992088E-2,5.4203838E-2,4.951468E-2,5.3451497E-2,-1.4045656E-3,2.6076812E-2],"split_indices":[41,12,13,21,1,28,41,28,41,11,9,37,41,12,10,41,41,4,1,3,29,10,10,11,50,1,42,9,50,1,52,52,37,40,34,5,41,37,11,0,0,3,21,0,0,1,35,42,42,21,9,27,9,13,3,23,0,9,13,0,0,37,37,12,0,38,0,50,21,1,42,42,3,5,12,52,21,0,28,0,17,27,10,0,0,37,42,4,26,41,12,5,1,4,0,34,50,11,0,0,11,50,0,0,1,40,29,21,42,0,1,50,17,13,33,0,0,6,34,3,4,4,0,0,0,31,0,35,40,52,30,13,10,8,21,36,5,28,24,18,29,1,0,14,29,4,36,32,0,13,37,0,10,0,52,5,1,13,12,40,1,25,10,0,9,27,37,13,19,0,35,0,0,39,29,0,0,0,0,0,0,1,5,50,40,11,40,50,0,0,0,52,29,0,4,0,0,0,0,0,0,0,0,0,0,0,0,0,0,0,0,0,0,0,0,0,0,0,0,0,0,0,0,0,0,0,0,0,0,0,0,0,0,0,0,0,0,0,0,0,0,0,0,0,0,0,0,0,0,0,0,0,0,0,0,0,0,0,0,0,0,0,0,0,0,0,0,0,0,0,0,0,0,0,0,0,0,0,0,0,0,0,0,0,0,0,0,0,0,0,0,0,0,0,0,0,0,0,0,0,0,0,0,0,0,0,0,0,0,0,0,0,0,0,0,0,0,0,0],"split_type":[0,0,0,0,0,0,0,0,0,0,0,0,0,0,0,0,0,0,0,0,0,0,0,0,0,0,0,0,0,0,0,0,0,0,0,0,0,0,0,0,0,0,0,0,0,0,0,0,0,0,0,0,0,0,0,0,0,0,0,0,0,0,0,0,0,0,0,0,0,0,0,0,0,0,0,0,0,0,0,0,0,0,0,0,0,0,0,0,0,0,0,0,0,0,0,0,0,0,0,0,0,0,0,0,0,0,0,0,0,0,0,0,0,0,0,0,0,0,0,0,0,0,0,0,0,0,0,0,0,0,0,0,0,0,0,0,0,0,0,0,0,0,0,0,0,0,0,0,0,0,0,0,0,0,0,0,0,0,0,0,0,0,0,0,0,0,0,0,0,0,0,0,0,0,0,0,0,0,0,0,0,0,0,0,0,0,0,0,0,0,0,0,0,0,0,0,0,0,0,0,0,0,0,0,0,0,0,0,0,0,0,0,0,0,0,0,0,0,0,0,0,0,0,0,0,0,0,0,0,0,0,0,0,0,0,0,0,0,0,0,0,0,0,0,0,0,0,0,0,0,0,0,0,0,0,0,0,0,0,0,0,0,0,0,0,0,0,0,0,0,0,0,0,0,0,0,0,0,0,0,0,0,0,0,0,0,0,0,0,0,0,0,0,0,0,0,0,0,0,0,0,0,0,0,0,0,0,0,0,0,0,0,0,0,0,0,0,0,0],"sum_hessian":[5.0516E4,2.6848E4,2.3668E4,2.3269E4,3.579E3,9.476E3,1.4192E4,1.976E3,2.1293E4,9.05E2,2.674E3,5.396E3,4.08E3,3.084E3,1.1108E4,1.285E3,6.91E2,1.9102E4,2.191E3,2.43E2,6.62E2,9.8E1,2.576E3,4.565E3,8.31E2,2.343E3,1.737E3,1.09E2,2.975E3,7E1,1.1038E4,5.54E2,7.31E2,3.96E2,2.95E2,1.632E3,1.747E4,1.995E3,1.96E2,1E0,2.42E2,1.77E2,4.85E2,5E0,9.3E1,4.4E1,2.532E3,3.05E2,4.26E3,6.58E2,1.73E2,2.105E3,2.38E2,1.614E3,1.23E2,8.2E1,2.7E1,3.28E2,2.647E3,3.1E1,3.9E1,1.66E2,1.0872E4,5.45E2,9E0,6.1E2,1.21E2,1.8E2,2.16E2,1.3E1,2.82E2,1.474E3,1.58E2,1.3776E4,3.694E3,1.08E2,1.887E3,2.7E1,1.69E2,3.4E1,1.43E2,3.76E2,1.09E2,3.5E1,9E0,5.75E2,1.957E3,1.66E2,1.39E2,3.725E3,5.35E2,2.24E2,4.34E2,1.71E2,2E0,1.867E3,2.38E2,2.2E2,1.8E1,4.3E1,1.571E3,1.08E2,1.5E1,7.8E1,4E0,1.85E2,1.43E2,1.171E3,1.476E3,1.37E2,2.9E1,1.081E4,6.2E1,4.92E2,5.3E1,1E0,8E0,1.42E2,4.68E2,1.43E2,3.7E1,2.6E1,1.9E2,1.2E1,1E0,2.74E2,8E0,4.71E2,1.003E3,1.13E2,4.5E1,1.348E4,2.96E2,3.658E3,3.6E1,7E1,3.8E1,1.372E3,5.15E2,7.1E1,9.8E1,1.4E2,3E0,1.7E1,3.59E2,7.2E1,3.7E1,5.04E2,7.1E1,1.167E3,7.9E2,1.23E2,4.3E1,4E0,1.35E2,8.46E2,2.879E3,1.08E2,4.27E2,6E1,1.64E2,3.25E2,1.09E2,1E0,1.7E2,1.15E2,1.752E3,2.02E2,3.6E1,7E0,2.13E2,1.7E1,1E0,1.163E3,4.08E2,1.02E2,6E0,1.3E1,2E0,2E0,2E0,3.4E1,1.51E2,9.9E1,4.4E1,9.86E2,1.85E2,1.47E3,6E0,2.8E1,1E0,1.206E3,9.604E3,1.2E1,5E1,4.84E2,8E0,1.4E1,3.9E1,6E0,1.36E2,2.45E2,2.23E2,3E0,1.4E2,1.6E1,2.1E1,2.5E1,1E0,1.1E1,1.79E2,2.7E2,4E0,1.7E2,3.01E2,9.48E2,5.5E1,7E0,1.06E2,1.4E1,3.1E1,1.3475E4,5E0,2.75E2,2.1E1,2.3E1,3.635E3,9E0,2.7E1,6.4E1,6E0,3E0,3.5E1,1.5E2,1.222E3,1.32E2,3.83E2,1E0,7E1,2.5E1,7.3E1,5E0,1.35E2,1.5E1,2E0,3.51E2,8E0,5E0,6.7E1,3E0,3.4E1,4.85E2,1.9E1,4E0,6.7E1,2E0,1.165E3,3.63E2,4.27E2,4.2E1,1E0,3E0,1E0,2E0,1.33E2,5.89E2,2.57E2,1.68E2,2.711E3,9.8E1,1E1,3.49E2,7.8E1,3E0,5.7E1,2E0,1.62E2,3E0,3.22E2,3.4E1,7.5E1,1.67E2,3E0,1E2,1.5E1,1.006E3,7.46E2,4E1,1.62E2,1E0,3.5E1,4E0,2.09E2,1.118E3,4.5E1,2.74E2,1.34E2,1E0,1.01E2,2.1E1,1.3E1,1.46E2,5E0,9.4E1,5E0,3.1E1,1.3E1,4.4E1,9.42E2,1.5E2,3.5E1,2.66E2,1.204E3,3.73E2,8.33E2,8.727E3,8.77E2,3E0,4.7E1],"tree_param":{"num_deleted":"0","num_feature":"53","num_nodes":"319","size_leaf_vector":"1"}},{"base_weights":[2.553596E-3,-3.170504E-1,3.4782162E-1,-4.0427586E-1,2.579572E-1,2.2235264E-1,4.6069E-1,-3.684573E-2,-4.2927137E-1,4.221035E-1,8.3978556E-2,1.2063403E-1,3.880887E-1,2.980525E-1,4.7720417E-1,-1.9674888E-1,2.1746881E-1,-1.4464426E-1,-4.4740647E-1,-4E-1,4.335804E-1,2.494019E-2,-5.348653E-2,2.4578251E-1,-2.6548672E-2,4.1036513E-1,-3.423077E-1,1.359127E-1,4.181416E-1,4.2763412E-1,4.914013E-1,-3.1854838E-1,8.058608E-2,-2.4596775E-2,3.05E-1,2.4291497E-1,-2.3717329E-1,-4.634099E-1,-3.0488408E-1,-2.375E-2,-8.3333336E-2,-3.0555555E-1,4.409902E-1,-3.3452594E-1,1.6974431E-1,2.9853538E-1,-1.7054264E-2,-8.598609E-2,2.7155963E-1,-2.4489796E-2,4.2077675E-1,-4.2016807E-1,2.2916667E-2,4.3554688E-1,-1.7269076E-1,-1.3207547E-1,4.640575E-1,-4.4E-1,4.359174E-1,4.4365427E-1,4.967284E-1,-3.5151008E-1,2.4E-2,4.08E-1,-1.9463088E-1,3.417191E-1,-4.375E-1,4.453125E-1,-4.5535713E-1,-3.7146702E-1,1.06529206E-1,-4.709362E-1,-2.1361059E-1,-3.6678082E-1,-1.4524648E-1,1.6666668E-2,-1.875E-2,-2.3333333E-2,1.875E-2,4.8298067E-1,3.7019968E-1,-2.4930557E-2,-3.75E-2,-4.7580644E-1,2.3172629E-1,7.08899E-2,3.576757E-1,-3.3564815E-1,1.4302325E-1,-1.513453E-1,2.0337301E-1,2.9942966E-1,-2.375E-2,1.6307692E-1,4.422928E-1,2.1428572E-2,-4.6902654E-1,4.5039684E-1,-2.0000001E-2,-3.9112905E-1,4.3650795E-2,3.846154E-1,-2.9268292E-1,4.886562E-1,1.9444445E-1,-2.3958333E-2,1.25E-2,4.7181374E-1,2.964015E-1,3.0943397E-1,4.9769232E-1,3.7777779E-1,4.9733117E-1,3.4375E-1,-3.7005162E-1,-2.0000001E-2,4.3801653E-1,2.3529412E-2,-2.781955E-1,-2.962963E-1,3.7915742E-1,1.25E-2,-2.3913044E-2,-2.1428572E-2,4.7580644E-1,1.6666668E-2,-2.4537038E-2,3.0208334E-1,-4.1738507E-1,3.034826E-1,-3.2967034E-1,-2.6006192E-1,-4.7487482E-1,-4.1311476E-1,5.7777777E-2,-3.7638503E-1,2.3529412E-2,-4.525862E-1,-6.622516E-2,4.8661128E-1,-2.0000001E-2,4.7147146E-1,2.633229E-1,-2.4702381E-2,2.905983E-1,-2.4576271E-2,-1.25E-1,4.5328718E-1,5.0704226E-2,4.423676E-1,-2.7696794E-1,-9.756098E-3,3.8967136E-1,-2.8846154E-2,-4.3030304E-1,-2.4509804E-2,2.2763158E-1,-2.625523E-1,4.8933502E-2,4.370229E-1,-4.9382716E-2,1.25E-1,3.89049E-1,-2.2183098E-1,4.5923913E-1,4.843448E-1,3.5742036E-1,-1.5E-1,-2.4759617E-2,4.58E-1,-1.6666668E-2,2.2222222E-1,-4.3534482E-1,2.6666668E-1,-2.7884614E-1,-1.25E-2,2.2916667E-2,-4.516129E-1,1.8181819E-1,4.9385965E-1,-1.875E-2,-3.6842105E-1,2.4305556E-2,1.9907407E-1,4.8680806E-1,-2.7941176E-1,4.3325526E-1,4.775641E-1,6.818182E-2,2E-1,2.49613E-2,2.4375001E-2,-2.0833334E-2,4.296875E-1,4.9781057E-1,2.0000001E-2,-1.25E-2,-1.952847E-2,1.12499995E-2,2.3873875E-2,-0E0,-1.8008476E-2,1.71875E-2,2.0833334E-2,-2.3863636E-2,5.6074765E-3,2.3043478E-2,-0E0,2.4859551E-2,2.4342105E-2,-1.818182E-2,-2.1989329E-2,-2.4390244E-3,-1.2980769E-2,2.4833335E-2,-1.9817075E-2,1.25E-2,5.523256E-3,-1.9642858E-2,-1.8055556E-2,-2.3933321E-2,-2.2033898E-2,1.818182E-2,2.1683674E-2,-1.1523438E-2,-1.9399293E-2,9.166667E-3,2.0833334E-2,-2.4774775E-2,1.47916665E-2,-9.80539E-3,2.4512082E-2,-3.125E-3,2.4459876E-2,-7.5000003E-3,8.444444E-3,2.4210526E-2,2.3595506E-2,-1.3793103E-2,1.25E-2,-1.6666668E-2,-2.2727273E-2,2.437276E-2,8.660714E-3,-2.006579E-2,-1.4772727E-2,2.475E-2,2.4285715E-2,-1.8122977E-2,1.3653846E-2,-2.4671054E-2,1.3622291E-2,2.36E-2,1.328125E-2,-2.3809524E-2,-2.3259494E-2,1.5625E-2,1.6923077E-2,-2.0982144E-2,1.4455783E-3,-1.6871167E-2,-7.769424E-3,1.2656641E-2,-2.3076924E-2,2.41E-2,-9.259259E-3,2.0909091E-2,-2.5943397E-3,1.8666668E-2,2.044776E-2,-7.692308E-3,5.7377047E-3,-2.347561E-2,2.4301676E-2,-2.0833334E-2,6.25E-3,2.4518475E-2,-8.189655E-3,1.9085366E-2,-2.1428572E-2,1.875E-2,2.3651453E-2,2.5000002E-3,2.1428572E-2,-1.6666668E-2,1.875E-2,-2.3008851E-2,1.8145163E-2,-8.928572E-3,2.1875E-2,-2.0000001E-2,1.25E-2,-2.4166666E-2,-1.875E-2,2.1875E-2,2.486702E-2,7.1428576E-3,-2.3529412E-2,1.6666668E-2,2.4666667E-2,-2.2794118E-2,2.446836E-2,-2.0833334E-2,2.3333333E-2,-2.0170456E-2,2.4044117E-2,1.221591E-2,-1.6666668E-2,2.4512988E-2,2.1710528E-2,-6.1643836E-3,-1.25E-2,1.875E-2,-1.6666668E-2,2.2983871E-2,2.4896694E-2,1.5625E-2],"categories":[],"categories_nodes":[],"categories_segments":[],"categories_sizes":[],"default_left":[0,0,0,0,0,0,0,0,0,0,0,0,0,0,0,0,0,0,0,0,0,0,0,0,0,0,0,0,0,0,0,0,0,0,0,0,0,0,0,0,0,0,0,0,0,0,0,0,0,0,0,0,0,0,0,0,0,0,0,0,0,0,0,0,0,0,0,0,0,0,0,0,0,0,0,0,0,0,0,0,0,0,0,0,0,0,0,0,0,0,0,0,0,0,0,0,0,0,0,0,0,0,0,0,0,0,0,0,0,0,0,0,0,0,0,0,0,0,0,0,0,0,0,0,0,0,0,0,0,0,0,0,0,0,0,0,0,0,0,0,0,0,0,0,0,0,0,0,0,0,0,0,0,0,0,0,0,0,0,0,0,0,0,0,0,0,0,0,0,0,0,0,0,0,0,0,0,0,0,0,0,0,0,0,0,0,0,0,0,0,0,0,0,0,0,0,0,0,0,0,0,0,0,0,0,0,0,0,0,0,0,0,0,0,0,0,0,0,0,0,0,0,0,0,0,0,0,0,0,0,0,0,0,0,0,0,0,0,0,0,0,0,0,0,0,0,0,0,0,0,0,0,0,0,0,0,0,0,0,0,0,0,0,0,0,0,0,0,0,0,0,0,0,0,0,0,0,0,0,0,0,0,0,0,0,0,0,0,0,0,0,0,0,0,0,0,0,0,0,0,0,0,0,0,0,0,0,0,0,0,0,0,0,0,0,0,0],"id":2,"left_children":[1,3,5,7,9,11,13,15,17,19,21,23,25,27,29,31,33,35,37,39,41,-1,43,45,47,49,51,53,55,57,59,61,63,-1,65,67,69,71,73,-1,75,77,79,81,83,85,87,89,91,-1,93,95,-1,97,99,101,103,105,107,109,111,113,-1,115,117,119,121,123,125,127,129,131,133,135,137,-1,-1,-1,-1,139,141,-1,143,145,147,149,151,153,155,157,159,161,-1,163,165,-1,167,169,-1,171,173,175,177,179,181,-1,-1,183,185,187,189,191,193,195,197,-1,199,-1,201,203,205,-1,-1,-1,207,-1,-1,209,211,213,215,217,219,221,223,225,-1,227,229,231,-1,233,235,-1,237,-1,239,241,243,245,247,249,251,253,255,-1,257,259,261,263,265,267,269,271,273,275,277,279,-1,281,-1,283,285,287,289,-1,-1,291,293,295,-1,297,-1,299,301,303,305,307,309,311,-1,-1,-1,313,315,-1,-1,-1,-1,-1,-1,-1,-1,-1,-1,-1,-1,-1,-1,-1,-1,-1,-1,-1,-1,-1,-1,-1,-1,-1,-1,-1,-1,-1,-1,-1,-1,-1,-1,-1,-1,-1,-1,-1,-1,-1,-1,-1,-1,-1,-1,-1,-1,-1,-1,-1,-1,-1,-1,-1,-1,-1,-1,-1,-1,-1,-1,-1,-1,-1,-1,-1,-1,-1,-1,-1,-1,-1,-1,-1,-1,-1,-1,-1,-1,-1,-1,-1,-1,-1,-1,-1,-1,-1,-1,-1,-1,-1,-1,-1,-1,-1,-1,-1,-1,-1,-1,-1,-1,-1,-1,-1,-1,-1,-1,-1,-1,-1,-1,-1,-1,-1,-1,-1,-1,-1,-1],"loss_changes":[5.5746123E3,1.3158784E3,3.4379468E2,2.0918921E2,9.866081E1,1.9385895E2,3.4190674E1,5.908938E1,1.100249E2,1.6949219E1,9.576996E1,1.313205E2,7.130817E1,2.2938683E1,7.9555664E0,3.0156776E1,3.4985336E1,4.5923164E1,4.55896E1,5.541663E-1,9.74115E0,0E0,7.923045E1,5.342845E1,5.8087826E1,3.9990784E1,8.296545E0,4.667916E1,1.7190086E1,1.8812988E1,2.0722656E0,1.6488052E1,2.4679401E1,0E0,1.378146E1,3.5110928E1,4.7719856E1,3.3785645E1,1.9975616E1,0E0,8.541667E-1,2.148611E0,4.9844666E0,2.7225594E1,2.827906E1,4.317749E1,3.2942825E1,5.171804E1,1.1481846E1,0E0,2.3198914E1,5.1357193E0,0E0,3.3565636E0,1.1784136E1,4.510744E0,4.0567017E0,7.9541636E-1,1.2715942E1,6.475235E0,3.9294434E-1,7.8103714E0,0E0,3.2068748E0,8.413643E0,1.1506081E1,7.921195E-1,5.320366E0,1.7263556E0,2.3105667E1,2.5100142E1,1.4407959E1,2.8665573E1,1.1918854E1,1.3764697E1,0E0,0E0,0E0,0E0,3.6792603E0,6.9220123E0,0E0,3.0102066E1,2.80447E-1,2.5766083E1,8.5796326E1,2.99469E1,6.260296E0,2.3149105E1,4.9680317E1,2.9785984E1,8.173943E0,0E0,3.7150303E1,1.364978E1,0E0,8.6899567E-1,1.6542931E0,0E0,3.4595985E0,9.136523E0,7.227564E-1,3.1740222E0,2.760254E0,9.044225E0,0E0,0E0,8.245789E0,4.172862E1,1.0716305E1,1.9691467E-1,4.125695E0,4.736328E-2,6.343751E-1,7.1813736E0,0E0,2.0914307E0,0E0,6.9045954E0,3.6826596E0,9.788132E0,0E0,0E0,0E0,1.8925323E0,0E0,0E0,6.080916E0,5.7256393E0,2.1994036E1,3.6159878E0,1.5936361E1,7.2351074E0,6.69022E0,2.4478838E1,9.447296E0,0E0,4.533142E0,2.136039E1,2.1896057E0,0E0,3.7417908E0,6.57234E0,0E0,1.2146779E1,0E0,3.9583334E-1,9.186012E0,1.972835E1,1.2611755E1,2.2540663E1,2.8178009E1,2.2483734E1,6.976448E0,4.4211903E0,0E0,2.7402245E1,3.1302773E1,3.3292095E1,1.0811108E1,1.5507071E1,7.9262104E0,3.8129463E0,1.1891821E1,4.520878E0,5.5394287E0,1.6354248E1,1.6232142E0,0E0,1.5093117E0,0E0,1.1746032E0,2.5067902E0,3.278417E0,4.6879807E0,0E0,0E0,8.107524E-1,1.7301136E0,6.2535095E-1,0E0,1.5190918E0,0E0,2.103942E1,4.6732483E0,9.6244545E0,3.724884E0,1.7694168E0,7.7626996E0,4.875E-1,0E0,0E0,0E0,1.617733E0,2.6977539E-2,0E0,0E0,0E0,0E0,0E0,0E0,0E0,0E0,0E0,0E0,0E0,0E0,0E0,0E0,0E0,0E0,0E0,0E0,0E0,0E0,0E0,0E0,0E0,0E0,0E0,0E0,0E0,0E0,0E0,0E0,0E0,0E0,0E0,0E0,0E0,0E0,0E0,0E0,0E0,0E0,0E0,0E0,0E0,0E0,0E0,0E0,0E0,0E0,0E0,0E0,0E0,0E0,0E0,0E0,0E0,0E0,0E0,0E0,0E0,0E0,0E0,0E0,0E0,0E0,0E0,0E0,0E0,0E0,0E0,0E0,0E0,0E0,0E0,0E0,0E0,0E0,0E0,0E0,0E0,0E0,0E0,0E0,0E0,0E0,0E0,0E0,0E0,0E0,0E0,0E0,0E0,0E0,0E0,0E0,0E0,0E0,0E0,0E0,0E0,0E0,0E0,0E0,0E0,0E0,0E0,0E0,0E0,0E0,0E0,0E0,0E0,0E0,0E0,0E0,0E0,0E0,0E0,0E0,0E0,0E0,0E0,0E0],"parents":[2147483647,0,0,1,1,2,2,3,3,4,4,5,5,6,6,7,7,8,8,9,9,10,10,11,11,12,12,13,13,14,14,15,15,16,16,17,17,18,18,19,19,20,20,22,22,23,23,24,24,25,25,26,26,27,27,28,28,29,29,30,30,31,31,32,32,34,34,35,35,36,36,37,37,38,38,40,40,41,41,42,42,43,43,44,44,45,45,46,46,47,47,48,48,50,50,51,51,53,53,54,54,55,55,56,56,57,57,58,58,59,59,60,60,61,61,63,63,64,64,65,65,66,66,67,67,68,68,69,69,70,70,71,71,72,72,73,73,74,74,79,79,80,80,82,82,83,83,84,84,85,85,86,86,87,87,88,88,89,89,90,90,91,91,93,93,94,94,96,96,97,97,99,99,100,100,101,101,102,102,103,103,104,104,107,107,108,108,109,109,110,110,111,111,112,112,113,113,114,114,116,116,118,118,119,119,120,120,124,124,127,127,128,128,129,129,130,130,131,131,132,132,133,133,134,134,135,135,137,137,138,138,139,139,141,141,142,142,144,144,146,146,147,147,148,148,149,149,150,150,151,151,152,152,153,153,154,154,156,156,157,157,158,158,159,159,160,160,161,161,162,162,163,163,164,164,165,165,166,166,167,167,169,169,171,171,172,172,173,173,174,174,177,177,178,178,179,179,181,181,183,183,184,184,185,185,186,186,187,187,188,188,189,189,193,193,194,194],"right_children":[2,4,6,8,10,12,14,16,18,20,22,24,26,28,30,32,34,36,38,40,42,-1,44,46,48,50,52,54,56,58,60,62,64,-1,66,68,70,72,74,-1,76,78,80,82,84,86,88,90,92,-1,94,96,-1,98,100,102,104,106,108,110,112,114,-1,116,118,120,122,124,126,128,130,132,134,136,138,-1,-1,-1,-1,140,142,-1,144,146,148,150,152,154,156,158,160,162,-1,164,166,-1,168,170,-1,172,174,176,178,180,182,-1,-1,184,186,188,190,192,194,196,198,-1,200,-1,202,204,206,-1,-1,-1,208,-1,-1,210,212,214,216,218,220,222,224,226,-1,228,230,232,-1,234,236,-1,238,-1,240,242,244,246,248,250,252,254,256,-1,258,260,262,264,266,268,270,272,274,276,278,280,-1,282,-1,284,286,288,290,-1,-1,292,294,296,-1,298,-1,300,302,304,306,308,310,312,-1,-1,-1,314,316,-1,-1,-1,-1,-1,-1,-1,-1,-1,-1,-1,-1,-1,-1,-1,-1,-1,-1,-1,-1,-1,-1,-1,-1,-1,-1,-1,-1,-1,-1,-1,-1,-1,-1,-1,-1,-1,-1,-1,-1,-1,-1,-1,-1,-1,-1,-1,-1,-1,-1,-1,-1,-1,-1,-1,-1,-1,-1,-1,-1,-1,-1,-1,-1,-1,-1,-1,-1,-1,-1,-1,-1,-1,-1,-1,-1,-1,-1,-1,-1,-1,-1,-1,-1,-1,-1,-1,-1,-1,-1,-1,-1,-1,-1,-1,-1,-1,-1,-1,-1,-1,-1,-1,-1,-1,-1,-1,-1,-1,-1,-1,-1,-1,-1,-1,-1,-1,-1,-1,-1,-1,-1],"split_conditions":[4.73379E1,4.931E2,4.1970694E2,-1.278993E0,-1.2E1,2.362695E2,7.41845E1,3.0173612E0,-1.2986111E1,4.0072397E2,-2.138889E1,1.9180555E0,1.7423391E3,4.6391095E2,1.510448E2,3.702E2,-2.4166666E1,1.5522223E0,3.28755E1,-3.52E0,2.881E2,3.1731844E-2,3.477E2,3.9270833E0,2.2E0,3.1983734E2,3.44E0,-1.18854165E-1,1.6709772E1,7.7667224E-1,1.7461954E1,1.6E1,2.628975E2,-3.723162E-2,2.9097223E0,3.0020897E0,2.9234722E0,4.776E2,8.123958E-1,-4.323089E-3,-3.8E0,4.88E2,3.611E2,9.0385E0,3.992E2,3.390816E2,8.63993E1,4.36E2,6.98E0,-8.7992465E-3,2.22526E1,1.749566E0,7.251281E-3,2.563889E-1,1.2227777E0,5.037E2,1.7627778E0,3.905E2,2.9136806E0,1.7340572E0,3.701E2,-3.2613716E0,8.896259E-3,-3.41E0,-2.825E1,2.428782E0,4.4444E0,8.0175966E-1,3.6047E1,-1.9725695E1,4.970136E2,-5.65E0,2.27253E1,4.872E2,3.5815555E2,6.6217305E-3,-1.411748E-3,-6.8648695E-3,5.458041E-2,-7.2222223E0,2E0,-1.757868E-2,2.2000868E0,6.867E0,9.76282E1,3.34774E1,9.377639E-1,-1.7333333E-1,-1.1930555E0,1.407265E2,2.4222222E-1,-1E1,-2.9572917E-2,3.616E2,2.5386112E0,8.6563295E-3,-4.47E0,6.087339E2,-9.404996E-3,2.3675427E0,2.88E0,4.632E2,6.97425E1,1.928004E3,3.6934027E-1,-1.2878495E-2,1.8871308E-3,1.6064098E1,4.393E2,-1.7E-1,1.544206E2,3.663E2,3.8E-1,1.85E0,4.389762E0,-1.5371115E-3,-6E0,7.2434633E-3,4.13927E2,4.091E2,-1.746632E0,2.3060442E-4,-7.444549E-3,-5.1730904E-3,-2.6E1,2.9741616E-3,-1.0961467E-2,4.73E2,4.0515E1,2.03219E1,1.8E0,9.8805E0,-1.3E1,2.33447E1,9.2308E0,2.1E1,3.0422607E-2,9.5E-1,1.1498958E0,1.4897223E0,-7.5433613E-3,6.731E2,5.07E0,-8.765745E-3,1.015997E2,-2.089709E-2,4.913E2,3.9138E0,3.5227604E0,-3.17E0,-2.1E1,4.1583332E-1,9.46758E1,3.525E2,2E1,-2.2777809E-2,2.583906E2,3.256E2,-3E0,-1.9725695E1,4.6E0,8.843E1,4.1829688E2,2.7489932E0,4.626E2,-2.7E1,3.242E2,-2.92E0,-3.2581132E-2,-2.5833333E0,-2.1644114E-2,1.83457E1,2.0758681E0,4.23E0,4.2271512E2,-1.6403127E-2,2.188973E-2,-1.9E1,-1.4E1,5.49E0,-6.3221813E-3,3.692E2,2.7999073E-2,4.341E2,2.2849316E3,-4.0611112E-1,-1.8864584E-1,-6E0,4.651E2,2.18E0,5.820656E-2,4.3833088E-2,-1.3537764E-3,-3.17E0,1.4E1,9.444177E-4,-3.581345E-4,-1.1381132E-2,2.9877902E-3,2.2914654E-2,3.4672023E-5,-1.2188613E-2,4.889977E-3,4.7808886E-2,-2.2000033E-2,2.3120882E-3,2.0997286E-2,3.8764774E-4,1.8017793E-2,1.1256123E-2,-8.689314E-3,-1.6548378E-2,-5.3491625E-3,-4.1167857E-3,2.661006E-2,-8.066773E-3,1.2479722E-3,2.264452E-3,-2.7551098E-2,-1.6861105E-2,-2.7381634E-2,-1.24654025E-2,2.5756354E-2,1.3537156E-2,-5.654973E-3,-1.0501E-2,5.3393245E-3,6.207508E-3,-3.6411922E-2,3.9215386E-3,-4.3497267E-3,2.8070575E-2,-1.3534188E-3,2.5931312E-2,-4.10822E-2,4.3533505E-3,1.1923996E-2,1.1416391E-2,-9.357122E-3,1.5323878E-3,-1.8265396E-3,-1.1956314E-2,1.9910777E-2,5.534184E-3,-9.554202E-3,-2.530676E-3,1.5473056E-2,2.159903E-2,-9.98447E-3,9.426534E-3,-2.8449757E-2,6.9772364E-3,2.0450354E-2,5.8362368E-3,-2.4160733E-2,-1.435895E-2,2.0608604E-3,9.230283E-3,-2.0770682E-2,6.158769E-4,-1.2929598E-2,-4.8387083E-3,8.563119E-3,-9.845919E-3,3.2537073E-2,-2.4205565E-3,1.1938417E-2,-8.116841E-4,1.1839921E-2,1.2666392E-2,-1.0421484E-3,7.3218765E-3,-7.0224167E-3,2.0095771E-2,-8.723653E-3,1.5871465E-3,3.942239E-2,-7.698733E-3,2.2607697E-2,-4.714787E-2,1.6825289E-2,1.7209405E-2,3.2288433E-4,7.7950866E-3,-9.293467E-4,2.5698661E-3,-3.2845587E-3,4.5244754E-3,-4.4457318E-4,8.67095E-3,-6.7379265E-3,1.958332E-2,-3.347844E-2,-2.5551826E-2,7.5869444E-3,2.6361441E-2,1.1024833E-2,-8.918962E-3,6.560108E-3,1.3132718E-2,-2.5631696E-2,2.127759E-2,-1.0542924E-2,3.5532642E-2,-1.4023894E-2,4.1671492E-2,2.0671343E-2,-9.903252E-4,2.9447103E-2,1.6605247E-2,-3.7252933E-3,-9.509635E-3,4.193144E-2,-2.6936382E-3,1.6970588E-2,5.0776828E-2,4.3144416E-2],"split_indices":[41,12,13,21,33,41,41,28,37,13,36,28,42,13,41,11,36,28,41,14,11,0,11,37,27,13,3,21,50,52,50,34,42,0,37,52,29,1,21,0,0,1,11,40,8,13,41,1,22,0,40,29,0,20,20,7,20,1,29,52,10,21,0,19,36,52,5,52,5,37,42,0,40,7,12,0,0,0,0,36,34,0,29,5,5,38,52,20,20,41,20,34,0,9,28,0,0,5,0,52,23,1,41,5,21,0,0,50,7,17,41,10,27,0,52,0,32,0,40,10,21,0,0,0,32,0,0,6,41,40,18,42,33,41,42,31,0,3,21,20,0,8,26,0,50,0,1,41,29,0,35,20,41,1,34,0,40,10,34,37,0,41,13,29,11,33,6,15,0,36,0,5,29,26,13,0,0,31,4,23,0,11,0,1,42,20,21,0,1,3,0,0,0,0,33,0,0,0,0,0,0,0,0,0,0,0,0,0,0,0,0,0,0,0,0,0,0,0,0,0,0,0,0,0,0,0,0,0,0,0,0,0,0,0,0,0,0,0,0,0,0,0,0,0,0,0,0,0,0,0,0,0,0,0,0,0,0,0,0,0,0,0,0,0,0,0,0,0,0,0,0,0,0,0,0,0,0,0,0,0,0,0,0,0,0,0,0,0,0,0,0,0,0,0,0,0,0,0,0,0,0,0,0,0,0,0,0,0,0,0,0,0,0,0,0,0,0],"split_type":[0,0,0,0,0,0,0,0,0,0,0,0,0,0,0,0,0,0,0,0,0,0,0,0,0,0,0,0,0,0,0,0,0,0,0,0,0,0,0,0,0,0,0,0,0,0,0,0,0,0,0,0,0,0,0,0,0,0,0,0,0,0,0,0,0,0,0,0,0,0,0,0,0,0,0,0,0,0,0,0,0,0,0,0,0,0,0,0,0,0,0,0,0,0,0,0,0,0,0,0,0,0,0,0,0,0,0,0,0,0,0,0,0,0,0,0,0,0,0,0,0,0,0,0,0,0,0,0,0,0,0,0,0,0,0,0,0,0,0,0,0,0,0,0,0,0,0,0,0,0,0,0,0,0,0,0,0,0,0,0,0,0,0,0,0,0,0,0,0,0,0,0,0,0,0,0,0,0,0,0,0,0,0,0,0,0,0,0,0,0,0,0,0,0,0,0,0,0,0,0,0,0,0,0,0,0,0,0,0,0,0,0,0,0,0,0,0,0,0,0,0,0,0,0,0,0,0,0,0,0,0,0,0,0,0,0,0,0,0,0,0,0,0,0,0,0,0,0,0,0,0,0,0,0,0,0,0,0,0,0,0,0,0,0,0,0,0,0,0,0,0,0,0,0,0,0,0,0,0,0,0,0,0,0,0,0,0,0,0,0,0,0,0,0,0,0,0,0,0,0,0,0,0,0,0,0,0,0,0,0,0,0,0,0,0,0,0],"sum_hessian":[5.0516E4,2.6233E4,2.4283E4,2.2778E4,3.455E3,1.1501E4,1.2782E4,1.451E3,2.1327E4,1.777E3,1.678E3,7.128E3,4.373E3,1.18E3,1.1602E4,8.91E2,5.6E2,1.278E3,2.0049E4,2.4E1,1.753E3,4.17E2,1.261E3,3.852E3,3.276E3,4.244E3,1.29E2,5.03E2,6.77E2,2.59E3,9.012E3,6.19E2,2.72E2,6.1E1,4.99E2,2.46E2,1.032E3,1.8023E4,2.026E3,1.9E1,5E0,1.7E1,1.736E3,5.58E2,7.03E2,3.208E3,6.44E2,2.732E3,5.44E2,4.8E1,4.196E3,1.18E2,1.1E1,2.55E2,2.48E2,5.2E1,6.25E2,2.4E1,2.566E3,9.13E2,8.099E3,5.95E2,2.4E1,1.24E2,1.48E2,4.76E2,2.3E1,1.91E2,5.5E1,7.42E2,2.9E2,1.7495E4,5.28E2,1.459E3,5.67E2,2E0,3E0,1.4E1,3E0,1.086E3,6.5E2,3.59E2,1.99E2,6.1E1,6.42E2,6.62E2,2.546E3,2.15E2,4.29E2,2.229E3,5.03E2,5.25E2,1.9E1,3.24E2,3.872E3,6E0,1.12E2,2.51E2,4E0,1.23E2,1.25E2,1.2E1,4E1,5.72E2,5.3E1,2.3E1,1E0,2.039E3,5.27E2,2.64E2,6.49E2,4.4E1,8.055E3,1.5E1,5.8E2,4E0,1.2E2,1.6E1,1.32E2,2.6E1,4.5E2,1E0,2.2E1,6E0,1.85E2,2E0,5.3E1,4.7E1,6.95E2,2E2,9E1,3.22E2,1.7173E4,3.04E2,2.24E2,1.443E3,1.6E1,1.15E2,4.52E2,1.082E3,4E0,3.32E2,3.18E2,8.3E1,1.16E2,5.8E1,3E0,2.88E2,3.54E2,3.2E2,3.42E2,2.04E2,2.342E3,5.1E1,1.64E2,5E1,3.79E2,1.433E3,7.96E2,2.61E2,2.42E2,1.79E2,3.46E2,1.41E2,1.83E2,2.586E3,1.286E3,9E0,1.03E2,2.49E2,2E0,8E0,1.15E2,7.4E1,5.1E1,1E0,1.1E1,3E1,1E1,5.69E2,3E0,1.8E1,3.5E1,1.07E2,1.932E3,1.01E2,4.26E2,1.55E2,1.09E2,4E0,6.45E2,3.9E1,5E0,6.3E1,7.992E3,1.4E1,1E0,5.61E2,1.9E1,1.1E2,1E1,1.17E2,1.5E1,5E0,2.1E1,1.06E2,3.44E2,8E0,1.77E2,3.7E1,1E1,6.55E2,4E1,5.1E1,1.49E2,8.1E1,9E0,8.5E1,2.37E2,5.57E2,1.6616E4,2.94E2,1E1,9.7E1,1.27E2,1.414E3,2.9E1,5E0,1.1E2,1.19E2,3.33E2,1.075E3,7E0,3.23E2,9E0,2.24E2,9.4E1,8.8E1,2.8E1,1E0,2E0,1E1,2.78E2,2.79E2,7.5E1,2.1E1,2.99E2,3.4E1,3.08E2,1.29E2,7.5E1,9.68E2,1.374E3,3.1E1,2E1,1.57E2,7E0,3.24E2,5.5E1,2.93E2,1.14E3,3.98E2,3.98E2,1.2E1,2.49E2,1.88E2,5.4E1,1.05E2,7.4E1,3.34E2,1.2E1,6E1,8.1E1,1.78E2,5E0,4.3E1,2.543E3,5.7E1,1.229E3,6E0,3E0,2.4E2,9E0,6E0,2E0,3E0,1.12E2,6.1E1,1.3E1,7E0,4.4E1,1E0,2.9E1,3E0,7E0,5.63E2,6E0,1.6E1,2E0,7.4E1,3.3E1,1.927E3,5E0,1.4E1,8.7E1,3.39E2,8.7E1,2E0,1.53E2,3.7E1,7.2E1,1E0,3E0,2E0,6.1E1,7.985E3,7E0],"tree_param":{"num_deleted":"0","num_feature":"53","num_nodes":"317","size_leaf_vector":"1"}},{"base_weights":[4.1570165E-3,-3.111039E-1,3.4473315E-1,-3.9729574E-1,2.570891E-1,2.1835333E-1,4.5842135E-1,-8E-2,-4.2656437E-1,4.320122E-1,9.9064395E-2,1.19658716E-1,3.839348E-1,3.4600598E-1,4.8357752E-1,-2.0846774E-1,1.5233237E-1,-1.9174603E-1,-4.4572377E-1,-4.074074E-1,4.4578686E-1,4.9665925E-1,-3.140979E-2,2.3443136E-1,-3.6885247E-2,4.058753E-1,-3.452381E-1,2.1189189E-1,4.3330982E-1,2.7727273E-1,4.857267E-1,-1.8832391E-2,-3.5E-1,-2.2670025E-2,3.913793E-1,-2.5694445E-1,2.3798077E-1,-4.7516388E-1,-3.4849498E-1,-2.3863636E-2,-8.3333336E-2,-3.0555555E-1,4.539762E-1,2.4944197E-2,-1.25E-2,-4.9190938E-1,1.0273327E-1,2.9052258E-1,-1.164295E-2,-7.261191E-2,4.3691587E-1,-2.4468085E-2,4.1597962E-1,-4.173913E-1,3.75E-1,4.146789E-1,-7.874016E-2,-1.7283951E-1,4.697083E-1,2.4705883E-2,-4.4230768E-1,4.29727E-1,4.916007E-1,4.5806453E-1,-2.148541E-1,-2.0833334E-2,-4.1624364E-1,-3.480663E-1,2.4884793E-1,4.430147E-1,-3.6842105E-1,-1.2315271E-3,-3.6448598E-1,4.1830066E-1,-2.5892857E-1,-4.8028824E-1,-2.7123287E-1,-3.677066E-1,-6.620209E-2,1.6666668E-2,-1.875E-2,-2.3333333E-2,1.875E-2,4.6902066E-1,2.1649484E-1,1.6666668E-2,-2.4918567E-2,-3.52657E-1,2.128655E-1,3.554947E-1,9.0252705E-2,-3.3405173E-1,1.2638377E-1,-1.261468E-1,2.1931818E-1,4.8267326E-1,-3.0769232E-1,4.7385746E-1,3.1885937E-1,3.3333334E-1,-4.7663552E-1,-1.25E-2,2.2727273E-2,4.454023E-1,-2.7083334E-1,4.1573033E-1,-2.2866894E-1,2.8E-1,-3.6842105E-1,4.7261816E-1,-2.0000001E-2,-2.4E-2,1.25E-2,-3.75E-1,4.3916157E-1,2.8915662E-1,4.933614E-1,-0E0,4.7651008E-1,2.4390245E-2,-2.9970327E-1,2.578125E-1,-3.3333334E-1,-5.46875E-2,-4.592803E-1,-4.7517732E-1,9.756097E-2,-4.4444445E-1,3.4554973E-1,4.642857E-1,-2.1428572E-2,1.6666668E-2,-2.3529412E-2,4.190141E-1,-2.264151E-1,9.009009E-3,-4.126612E-1,-1.875E-1,4.4863012E-1,-4.5588234E-1,4.347826E-2,-4.8076257E-1,3.3333334E-1,-4.6938777E-1,1.322314E-1,4.516129E-1,-3.7371072E-1,4.05E-1,-3.1648937E-1,4.7280052E-1,-0E0,-1.3793103E-1,3.6231884E-1,-4.3882978E-1,2.375E-2,-3.7974682E-1,2.7284428E-1,3.9290294E-1,-4.56621E-2,-4.6071428E-1,2.015896E-1,-9.411765E-2,-4.695946E-1,-3.4322035E-1,2.564706E-1,-2.2612156E-1,9.832841E-3,3.111413E-1,-2.4657534E-1,2.0833333E-1,2.486911E-2,-2.2727273E-2,1.6666668E-2,-2.3809524E-2,4.814598E-1,3.9248705E-1,9.715026E-2,-1.25E-2,2.1875E-2,-2.4757281E-2,-0E0,2.2033899E-1,4.7306034E-1,-2.3684211E-2,2.0833334E-2,-2.5E-1,2.46875E-2,-4.4014084E-1,-2.9605264E-2,2.3611112E-2,-1.875E-1,-4.1666666E-1,1.875E-2,4.9287748E-1,3.950178E-1,1.25E-2,-2.2727273E-2,4.8020434E-1,2.7295917E-1,4.7761193E-1,-2.3529412E-2,4.9704176E-1,4.4341084E-1,-1.875E-2,1.875E-2,1.3333335E-2,2.4814814E-2,-1.7637542E-2,1.3793103E-2,-2.2222223E-2,1.8303571E-2,-2.1354167E-2,7.5000003E-3,1.4166667E-2,-1.7142858E-2,1.4583333E-2,-2.3791103E-2,1.875E-2,-2.4818841E-2,-1.25E-2,2.375E-2,-2.4038462E-2,1.25E-2,-2.2916667E-2,1.9861111E-2,-1.4285715E-2,2.4134615E-2,-2.2222223E-2,2.369403E-2,-1.648707E-2,2.4264706E-2,1.875E-2,-2.0673078E-2,-2.151937E-2,6.25E-3,1.6666668E-2,-2.0833334E-2,-3.125E-3,2.3741007E-2,-2.4242425E-2,1.25E-2,-1.875E-2,2.2916667E-2,-1.056338E-2,-2.4103101E-2,2.1875E-2,-1.25E-2,-2.4070248E-2,1.875E-2,1.3010204E-2,-1.9791668E-2,-1.25E-2,2.4166666E-2,-1.22100515E-2,-2.0160578E-2,-1.6666668E-2,2.3641305E-2,3.125E-3,-2.3684211E-2,2.3938023E-2,1.5277778E-2,2.1428572E-2,-2.1428572E-2,-1.904762E-2,2.2222223E-2,2.2131149E-2,-1.1111111E-2,-2.3489011E-2,2.1428572E-2,-2.1830987E-2,5.5555557E-3,-2.4264706E-2,1.5356183E-2,2.0951737E-2,-4.0650405E-3,2.132353E-2,-2.2669492E-2,1.875E-2,-2.4087591E-2,-1.5178571E-2,1.3546797E-2,1.6129032E-2,-1.6363636E-2,-1.25E-2,-2.4444444E-2,-2.475E-2,2.3684211E-2,2.2529645E-2,-1.4450867E-3,5.7432433E-3,-1.7522212E-2,7.364341E-3,-1.1394102E-2,6.451613E-3,2.207944E-2,1.3541668E-2,-2.4500001E-2,2.2222223E-2,-1.875E-2,-5.263158E-3,2.4282625E-2,2.1114107E-2,-1.6847827E-2,1.679842E-2,-1.772388E-2,1.6666668E-2,-1.6666668E-2,2.202381E-2,-1.5277778E-2,2.3969632E-2,-1.875E-2,1.25E-2,-1.6666668E-2,2.0833334E-2,-2.3722628E-2,1.923077E-2,-8.552632E-3,-2.0000001E-2,6.25E-3,6.25E-3,-2.254902E-2,2.4737595E-2,4.166667E-3,-2.3684211E-2,2.2813689E-2,9.677419E-3,2.4568394E-2,-1.29629625E-2,1.7794117E-2,-1.25E-2,2.4621213E-2,2.4857856E-2,-0E0,-2.4242425E-2,2.4632953E-2],"categories":[],"categories_nodes":[],"categories_segments":[],"categories_sizes":[],"default_left":[0,0,0,0,0,0,0,0,0,0,0,0,0,0,0,0,0,0,0,0,0,0,0,0,0,0,0,0,0,0,0,0,0,0,0,0,0,0,0,0,0,0,0,0,0,0,0,0,0,0,0,0,0,0,0,0,0,0,0,0,0,0,0,0,0,0,0,0,0,0,0,0,0,0,0,0,0,0,0,0,0,0,0,0,0,0,0,0,0,0,0,0,0,0,0,0,0,0,0,0,0,0,0,0,0,0,0,0,0,0,0,0,0,0,0,0,0,0,0,0,0,0,0,0,0,0,0,0,0,0,0,0,0,0,0,0,0,0,0,0,0,0,0,0,0,0,0,0,0,0,0,0,0,0,0,0,0,0,0,0,0,0,0,0,0,0,0,0,0,0,0,0,0,0,0,0,0,0,0,0,0,0,0,0,0,0,0,0,0,0,0,0,0,0,0,0,0,0,0,0,0,0,0,0,0,0,0,0,0,0,0,0,0,0,0,0,0,0,0,0,0,0,0,0,0,0,0,0,0,0,0,0,0,0,0,0,0,0,0,0,0,0,0,0,0,0,0,0,0,0,0,0,0,0,0,0,0,0,0,0,0,0,0,0,0,0,0,0,0,0,0,0,0,0,0,0,0,0,0,0,0,0,0,0,0,0,0,0,0,0,0,0,0,0,0,0,0,0,0,0,0,0,0,0,0,0,0,0,0,0,0,0,0,0,0,0,0,0,0,0,0,0,0,0,0,0,0,0,0,0,0,0,0,0,0],"id":3,"left_children":[1,3,5,7,9,11,13,15,17,19,21,23,25,27,29,31,33,35,37,39,41,43,45,47,49,51,53,55,57,59,61,63,65,67,69,71,73,75,77,-1,79,81,83,-1,-1,85,87,89,91,93,95,-1,97,99,101,103,105,107,109,-1,111,113,115,117,119,121,123,125,127,129,131,133,135,137,139,141,143,145,147,-1,-1,-1,-1,149,151,-1,-1,153,155,157,159,161,163,165,167,169,171,173,175,177,179,-1,-1,181,183,185,187,189,191,193,-1,-1,-1,195,197,199,201,203,205,-1,207,209,211,213,215,217,219,221,223,225,-1,-1,-1,227,229,231,233,235,237,239,241,243,245,247,249,251,253,255,257,259,261,263,265,267,-1,269,271,273,275,277,279,281,283,285,287,289,291,293,295,297,-1,-1,-1,-1,299,301,303,-1,-1,-1,305,307,309,-1,-1,311,-1,313,315,-1,317,319,-1,321,323,-1,-1,325,327,329,-1,331,333,-1,-1,-1,-1,-1,-1,-1,-1,-1,-1,-1,-1,-1,-1,-1,-1,-1,-1,-1,-1,-1,-1,-1,-1,-1,-1,-1,-1,-1,-1,-1,-1,-1,-1,-1,-1,-1,-1,-1,-1,-1,-1,-1,-1,-1,-1,-1,-1,-1,-1,-1,-1,-1,-1,-1,-1,-1,-1,-1,-1,-1,-1,-1,-1,-1,-1,-1,-1,-1,-1,-1,-1,-1,-1,-1,-1,-1,-1,-1,-1,-1,-1,-1,-1,-1,-1,-1,-1,-1,-1,-1,-1,-1,-1,-1,-1,-1,-1,-1,-1,-1,-1,-1,-1,-1,-1,-1,-1,-1,-1,-1,-1,-1,-1,-1,-1,-1,-1,-1,-1,-1,-1,-1,-1,-1,-1,-1,-1,-1,-1,-1,-1],"loss_changes":[5.4241357E3,1.2848752E3,3.4880957E2,2.1151025E2,9.548854E1,1.879198E2,3.5982178E1,5.7487648E1,9.374048E1,1.91445E1,9.427405E1,1.2951453E2,6.885333E1,2.7318207E1,4.4956055E0,3.327441E1,2.8706848E1,4.418872E1,5.5024902E1,5.7154846E-1,1.0069641E1,8.7054443E-1,8.461753E1,5.7408463E1,5.16601E1,3.7924377E1,6.704425E0,5.4548824E1,3.134433E1,1.738266E1,3.1882324E0,4.973744E1,1.547303E1,3.5161938E1,1.15406685E1,3.7619225E1,1.8745659E1,1.5332764E1,2.4299194E1,0E0,8.541667E-1,2.148611E0,5.604187E0,0E0,0E0,1.8139267E0,5.3287556E1,4.403943E1,3.444151E1,4.4365555E1,7.4397774E0,0E0,2.3030396E1,5.273628E0,7.1022725E-1,1.1599022E1,2.8340637E1,7.277089E0,3.5726318E0,0E0,7.984619E-1,7.673416E0,3.1884766E0,1.3096352E0,2.2622944E1,1.0535157E1,9.170937E0,1.0298946E1,1.4701828E1,5.2417297E0,1.5190918E0,3.851563E1,1.733117E1,2.8952827E0,3.3551905E0,5.7304688E0,2.924324E1,2.082489E1,3.397578E1,0E0,0E0,0E0,0E0,2.6610413E0,5.0633035E0,0E0,0E0,1.4971996E1,3.049387E1,3.838974E1,5.106887E1,7.500757E0,3.319843E1,3.260191E1,1.889983E1,7.1149826E-1,1.3752912E0,1.887793E1,2.5149673E1,6.5625E-1,9.440174E-1,0E0,0E0,3.1451187E0,3.5444078E0,4.7461014E0,1.2321208E1,2.3351388E0,2.2006578E0,1.90094E0,0E0,0E0,0E0,7.1022725E-1,6.540268E0,1.2108529E1,1.482666E0,1.125E0,4.8630142E-1,0E0,1.0386705E1,5.0283356E0,2.646875E0,6.331213E0,6.697586E0,2.7274323E0,5.497256E0,8.012819E-1,8.11594E0,3.810028E0,0E0,0E0,0E0,6.9378586E0,1.9647661E1,1.7317915E1,8.183487E0,1.09375E0,1.9841042E0,8.163996E-1,4.1648545E0,4.949707E0,6.5625E-1,2.6665878E0,8.279919E0,8.107524E-1,1.5829773E1,5.165434E0,1.1229738E1,1.3378601E0,2.5714285E0,4.273673E0,3.3372936E0,5.2484665E0,0E0,2.2539167E0,2.0342125E1,2.9018463E1,4.2351204E1,2.642048E0,2.4323755E1,8.363774E0,5.0484085E-1,1.4865235E1,2.3556803E1,5.8626472E1,3.3263893E1,8.685108E0,9.327061E0,1.8194444E0,0E0,0E0,0E0,0E0,6.3535156E0,2.5310059E1,4.175186E1,0E0,0E0,0E0,6.666667E-1,6.964958E0,2.671524E0,0E0,0E0,5E-1,0E0,4.37228E0,8.971534E0,0E0,5.8125E-1,1.060049E0,0E0,7.671051E-1,1.5169037E1,0E0,0E0,2.410553E0,8.742381E0,8.4520626E-1,0E0,4.9414062E-1,2.9725113E1,0E0,0E0,0E0,0E0,0E0,0E0,0E0,0E0,0E0,0E0,0E0,0E0,0E0,0E0,0E0,0E0,0E0,0E0,0E0,0E0,0E0,0E0,0E0,0E0,0E0,0E0,0E0,0E0,0E0,0E0,0E0,0E0,0E0,0E0,0E0,0E0,0E0,0E0,0E0,0E0,0E0,0E0,0E0,0E0,0E0,0E0,0E0,0E0,0E0,0E0,0E0,0E0,0E0,0E0,0E0,0E0,0E0,0E0,0E0,0E0,0E0,0E0,0E0,0E0,0E0,0E0,0E0,0E0,0E0,0E0,0E0,0E0,0E0,0E0,0E0,0E0,0E0,0E0,0E0,0E0,0E0,0E0,0E0,0E0,0E0,0E0,0E0,0E0,0E0,0E0,0E0,0E0,0E0,0E0,0E0,0E0,0E0,0E0,0E0,0E0,0E0,0E0,0E0,0E0,0E0,0E0,0E0,0E0,0E0,0E0,0E0,0E0,0E0,0E0,0E0,0E0,0E0,0E0,0E0,0E0,0E0,0E0,0E0,0E0,0E0,0E0,0E0,0E0,0E0,0E0,0E0,0E0],"parents":[2147483647,0,0,1,1,2,2,3,3,4,4,5,5,6,6,7,7,8,8,9,9,10,10,11,11,12,12,13,13,14,14,15,15,16,16,17,17,18,18,19,19,20,20,21,21,22,22,23,23,24,24,25,25,26,26,27,27,28,28,29,29,30,30,31,31,32,32,33,33,34,34,35,35,36,36,37,37,38,38,40,40,41,41,42,42,45,45,46,46,47,47,48,48,49,49,50,50,52,52,53,53,54,54,55,55,56,56,57,57,58,58,60,60,61,61,62,62,63,63,64,64,65,65,66,66,67,67,68,68,69,69,70,70,71,71,72,72,73,73,74,74,75,75,76,76,77,77,78,78,83,83,84,84,87,87,88,88,89,89,90,90,91,91,92,92,93,93,94,94,95,95,96,96,97,97,98,98,99,99,100,100,103,103,104,104,105,105,106,106,107,107,108,108,109,109,113,113,114,114,115,115,116,116,117,117,118,118,120,120,121,121,122,122,123,123,124,124,125,125,126,126,127,127,128,128,129,129,133,133,134,134,135,135,136,136,137,137,138,138,139,139,140,140,141,141,142,142,143,143,144,144,145,145,146,146,147,147,148,148,149,149,150,150,151,151,152,152,153,153,155,155,156,156,157,157,158,158,159,159,160,160,161,161,162,162,163,163,164,164,165,165,166,166,167,167,168,168,169,169,174,174,175,175,176,176,180,180,181,181,182,182,185,185,187,187,188,188,190,190,191,191,193,193,194,194,197,197,198,198,199,199,201,201,202,202],"right_children":[2,4,6,8,10,12,14,16,18,20,22,24,26,28,30,32,34,36,38,40,42,44,46,48,50,52,54,56,58,60,62,64,66,68,70,72,74,76,78,-1,80,82,84,-1,-1,86,88,90,92,94,96,-1,98,100,102,104,106,108,110,-1,112,114,116,118,120,122,124,126,128,130,132,134,136,138,140,142,144,146,148,-1,-1,-1,-1,150,152,-1,-1,154,156,158,160,162,164,166,168,170,172,174,176,178,180,-1,-1,182,184,186,188,190,192,194,-1,-1,-1,196,198,200,202,204,206,-1,208,210,212,214,216,218,220,222,224,226,-1,-1,-1,228,230,232,234,236,238,240,242,244,246,248,250,252,254,256,258,260,262,264,266,268,-1,270,272,274,276,278,280,282,284,286,288,290,292,294,296,298,-1,-1,-1,-1,300,302,304,-1,-1,-1,306,308,310,-1,-1,312,-1,314,316,-1,318,320,-1,322,324,-1,-1,326,328,330,-1,332,334,-1,-1,-1,-1,-1,-1,-1,-1,-1,-1,-1,-1,-1,-1,-1,-1,-1,-1,-1,-1,-1,-1,-1,-1,-1,-1,-1,-1,-1,-1,-1,-1,-1,-1,-1,-1,-1,-1,-1,-1,-1,-1,-1,-1,-1,-1,-1,-1,-1,-1,-1,-1,-1,-1,-1,-1,-1,-1,-1,-1,-1,-1,-1,-1,-1,-1,-1,-1,-1,-1,-1,-1,-1,-1,-1,-1,-1,-1,-1,-1,-1,-1,-1,-1,-1,-1,-1,-1,-1,-1,-1,-1,-1,-1,-1,-1,-1,-1,-1,-1,-1,-1,-1,-1,-1,-1,-1,-1,-1,-1,-1,-1,-1,-1,-1,-1,-1,-1,-1,-1,-1,-1,-1,-1,-1,-1,-1,-1,-1,-1,-1,-1],"split_conditions":[4.73379E1,4.931E2,4.1970694E2,-1.1005902E0,-1.4E1,2.424232E2,1.09206E2,2.9769444E0,-1.2E1,4.0203577E2,-2.138889E1,2.0784721E0,1.7423391E3,4.6391095E2,7.7667224E-1,-1.1111111E1,1.27253E1,2.622532E2,2.37778E1,-3.52E0,2.881E2,1.2037885E3,3.348E2,3.8611112E0,3.8099825E0,3.1983734E2,3.44E0,-1.18854165E-1,1.6064098E1,-1.1111111E1,1.7150496E1,5.88462E1,-1.2E1,2.87713E1,1.4E1,2.25427E1,2.01E0,1.794421E2,3.0475352E0,-3.9403858E-3,-3.8E0,4.88E2,6.98E0,3.0045753E-2,-6.041825E-4,-7.78E0,6.4164E0,3.278157E2,8.63993E1,2.2E0,-4.361111E0,-8.492837E-3,2.5386112E0,1.7584201E0,-9E0,4.174034E2,2.408517E0,5.3691E1,2.2849316E3,3.8526285E-2,3.905E2,-2.7E1,3.749E2,-2.1E1,-2.257986E1,-3.1E-1,2.554E0,4.0100338E1,-1.8179166E0,6.733262E2,3.76E2,-2E0,-1.936111E1,1.2293804E0,2.6571753E1,5.5341565E2,4.439E2,-1.5829861E1,1.06314E1,6.2906444E-3,-1.3411582E-3,-6.5216245E-3,5.1851388E-2,1.928004E3,2.5079167E0,4.8890323E-3,-1.7874597E-2,5.0008975E2,1.5803003E0,2.5820866E1,3.537E2,8.055556E-3,4.6597223E0,1.2534722E0,2.546205E1,3.689E2,2.050521E2,2.992E2,4.588E2,7.372747E2,-6E0,-3.2651424E-4,7.203615E-3,-2.2E1,4.31E2,-6E0,3.2537174E0,1.4955504E1,6.2E-1,3.1680207E0,-1.9983418E-2,-1.2275395E-2,1.7927766E-3,4.822E2,7.573504E2,1.167257E0,3.0820832E0,7.9E-1,1.05119E1,1.841387E-2,-1.3694445E1,1.5189583E0,1.489249E2,2.31E0,-3.9E1,1.61E0,-2.1E1,-2E0,-7.77E0,-1.7E1,-2.921823E-2,1.8676222E-4,-1.1244685E-3,2.0758681E0,4.423611E0,1.028157E2,1.875862E2,4.756E2,3.675E2,4.505E2,7.84549E1,-1.5E1,4.794E2,4.22E2,2.7776403E1,1.34E0,1.26E0,3.801E2,3.3876061E0,3.91E0,1E-2,-1.8E1,6.005E0,4.01024E1,6.71646E-3,2.2E-1,3.589E2,4.244E2,-3E0,3.69788E1,1.1135215E1,3.667882E2,-1.8E0,4.021E2,3.55E2,-8.118055E0,1.55E2,6.30546E1,5.70172E1,4.973E2,3.249999E-2,-1.2141702E-2,2.4762421E-3,-6.192386E-3,-3E1,7.88959E2,2.2000868E0,-4.031694E-3,7.7843904E-3,-3.182675E-2,-4.47E0,4.194E2,1.2227777E0,-2.9834462E-2,3.1830695E-2,4.083E2,9.416885E-3,-2.6E1,3.5025613E0,1.7960345E-2,5.897E2,-3.52E0,2.7257277E-2,6.677E2,1.9024516E0,6.347126E-3,-2.6669038E-2,1.84476E1,1.43E0,3.126E2,-4.677385E-3,1.4E1,4.0871667E2,-3.780842E-4,5.400032E-3,4.152924E-4,1.6201941E-2,-9.34538E-3,5.852759E-4,-7.6494515E-3,2.8392375E-3,-6.1498582E-3,4.6985745E-4,1.1854292E-3,-1.6379625E-3,1.0956764E-3,-2.801015E-2,1.6107315E-2,-2.7835483E-2,-1.5417517E-3,2.864334E-2,-1.9678479E-2,7.6822046E-4,-9.434712E-3,1.4447803E-2,-3.250593E-3,2.152592E-2,-1.3101235E-2,1.0309112E-2,-9.4997585E-3,7.677186E-3,7.040739E-3,-1.0357154E-2,-1.6151005E-2,1.2114823E-3,3.0938417E-3,-6.506854E-3,-2.9108525E-4,1.8912304E-2,-1.1860171E-2,3.5959687E-2,-1.3453173E-2,6.0660304E-3,-1.2570495E-2,-2.7636666E-2,3.2936335E-3,-4.557252E-4,-2.1392321E-2,1.0155046E-2,3.6150992E-3,-5.846864E-3,-2.460897E-4,3.3842565E-3,-5.702454E-3,-1.0324592E-2,-3.791657E-3,8.458036E-3,5.900562E-4,-2.1554152E-2,2.5017573E-2,6.1298907E-3,3.5825897E-2,-4.4884175E-2,-5.377433E-3,1.3192552E-2,3.177498E-2,-6.5239967E-4,-1.2382693E-2,9.954333E-3,-8.060324E-3,2.5195808E-3,-1.6199214E-2,1.2467975E-2,1.3532966E-2,-2.4456144E-3,1.9724881E-2,-1.793006E-2,1.3745487E-3,-1.0458293E-2,-1.804114E-2,9.8114405E-3,3.87297E-3,-1.1921114E-2,-1.8609578E-2,-1.4857507E-2,-3.034383E-2,1.5662242E-2,1.2326494E-2,-3.8235367E-3,2.5688054E-3,-1.1212486E-2,4.7566146E-3,-1.1469227E-2,1.022026E-3,1.2966818E-2,1.907146E-3,-1.9621646E-2,1.607565E-2,-1.2484848E-3,-5.1328837E-4,3.7808955E-2,2.0904765E-2,-8.969045E-3,3.124643E-2,-8.211291E-3,1.7259395E-2,-1.8215155E-2,3.7154716E-2,-4.7742664E-3,1.6390115E-2,-8.742655E-3,1.724124E-4,-9.788395E-4,3.0536712E-3,-3.3619464E-3,2.4717152E-3,-9.929299E-4,-2.069577E-2,1.3002217E-3,5.730659E-3,-2.6146358E-2,2.1504808E-2,8.3590215E-3,-1.3947106E-2,4.003514E-2,3.7532043E-2,4.6557993E-2,-3.4429969E-3,2.2377461E-2,-8.726567E-3,4.5254637E-2,4.5839697E-2,-5.271098E-3,-3.40162E-2,4.187259E-2],"split_indices":[41,12,13,21,33,41,41,28,4,13,36,28,42,13,52,37,41,5,41,14,11,5,11,37,29,13,3,21,50,37,50,5,35,40,31,42,3,5,52,0,0,1,25,0,0,14,41,42,41,27,36,0,28,29,4,39,52,40,42,0,1,35,10,35,37,14,38,50,21,42,7,35,37,52,50,13,1,37,42,0,0,0,0,5,28,0,0,13,52,50,11,20,37,37,50,8,5,1,11,5,4,0,0,31,11,4,52,50,15,29,0,0,0,7,38,21,28,0,41,0,36,29,40,26,33,3,4,4,0,34,0,0,0,29,37,5,39,1,10,10,42,30,1,11,50,3,24,7,52,14,0,4,23,42,0,19,8,9,4,5,50,13,19,11,1,37,42,41,42,6,0,0,0,0,33,39,29,0,0,0,0,10,20,0,0,10,0,34,52,0,8,0,0,11,52,0,0,40,23,11,0,33,12,0,0,0,0,0,0,0,0,0,0,0,0,0,0,0,0,0,0,0,0,0,0,0,0,0,0,0,0,0,0,0,0,0,0,0,0,0,0,0,0,0,0,0,0,0,0,0,0,0,0,0,0,0,0,0,0,0,0,0,0,0,0,0,0,0,0,0,0,0,0,0,0,0,0,0,0,0,0,0,0,0,0,0,0,0,0,0,0,0,0,0,0,0,0,0,0,0,0,0,0,0,0,0,0,0,0,0,0,0,0,0,0,0,0,0,0,0,0,0,0,0,0,0,0,0,0,0,0,0,0,0,0],"split_type":[0,0,0,0,0,0,0,0,0,0,0,0,0,0,0,0,0,0,0,0,0,0,0,0,0,0,0,0,0,0,0,0,0,0,0,0,0,0,0,0,0,0,0,0,0,0,0,0,0,0,0,0,0,0,0,0,0,0,0,0,0,0,0,0,0,0,0,0,0,0,0,0,0,0,0,0,0,0,0,0,0,0,0,0,0,0,0,0,0,0,0,0,0,0,0,0,0,0,0,0,0,0,0,0,0,0,0,0,0,0,0,0,0,0,0,0,0,0,0,0,0,0,0,0,0,0,0,0,0,0,0,0,0,0,0,0,0,0,0,0,0,0,0,0,0,0,0,0,0,0,0,0,0,0,0,0,0,0,0,0,0,0,0,0,0,0,0,0,0,0,0,0,0,0,0,0,0,0,0,0,0,0,0,0,0,0,0,0,0,0,0,0,0,0,0,0,0,0,0,0,0,0,0,0,0,0,0,0,0,0,0,0,0,0,0,0,0,0,0,0,0,0,0,0,0,0,0,0,0,0,0,0,0,0,0,0,0,0,0,0,0,0,0,0,0,0,0,0,0,0,0,0,0,0,0,0,0,0,0,0,0,0,0,0,0,0,0,0,0,0,0,0,0,0,0,0,0,0,0,0,0,0,0,0,0,0,0,0,0,0,0,0,0,0,0,0,0,0,0,0,0,0,0,0,0,0,0,0,0,0,0,0,0,0,0,0,0,0,0,0,0,0,0,0,0,0,0,0,0,0,0,0,0,0,0],"sum_hessian":[5.0516E4,2.6233E4,2.4283E4,2.2778E4,3.455E3,1.1501E4,1.2782E4,1.924E3,2.0854E4,1.639E3,1.816E3,7.207E3,4.294E3,2.34E3,1.0442E4,1.239E3,6.85E2,1.574E3,1.928E4,2.6E1,1.613E3,4.48E2,1.368E3,4.158E3,3.049E3,4.169E3,1.25E2,9.24E2,1.416E3,1.09E2,1.0333E4,5.3E2,7.09E2,3.96E2,2.89E2,1.367E3,2.07E2,1.4796E4,4.484E3,2.1E1,5E0,1.7E1,1.596E3,4.47E2,1E0,3.08E2,1.06E3,3.386E3,7.72E2,2.836E3,2.13E2,4.6E1,4.123E3,1.14E2,1.1E1,5.44E2,3.8E2,8E1,1.336E3,8.4E1,2.5E1,9.88E2,9.345E3,1.54E2,3.76E2,1.19E2,5.9E2,1.8E2,2.16E2,2.71E2,1.8E1,4.05E2,9.62E2,1.52E2,5.5E1,1.4432E4,3.64E2,4.198E3,2.86E2,2E0,3E0,1.4E1,3E0,1.5E3,9.6E1,2E0,3.06E2,2.06E2,8.54E2,2.556E3,8.3E2,2.31E2,5.41E2,2.397E3,4.39E2,2.01E2,1.2E1,2.581E3,1.542E3,8E0,1.06E2,1E0,1E1,5.21E2,2.3E1,8.8E1,2.92E2,2.4E1,5.6E1,1.332E3,4E0,2.4E1,1E0,1.1E1,9.77E2,8.2E1,9.263E3,6E0,1.48E2,4E1,3.36E2,6.3E1,5.6E1,6.3E1,5.27E2,1.4E2,4E1,2.6E1,1.9E2,2.65E2,6E0,2E0,1.6E1,1.41E2,2.64E2,1.1E2,8.52E2,7E0,1.45E2,3.3E1,2.2E1,1.4424E4,8E0,2.44E2,1.2E2,3E1,4.168E3,9.9E1,1.87E2,1.488E3,1.2E1,2.8E1,6.8E1,1.87E2,1.9E1,7.8E1,7.76E2,2.338E3,2.18E2,1.39E2,6.91E2,8.4E1,1.47E2,1.17E2,4.24E2,1.381E3,1.016E3,3.67E2,7.2E1,1.1E1,1.9E2,1E1,2E0,2E1,2.561E3,1.157E3,3.85E2,1E0,7E0,1.02E2,4E0,5.8E1,4.63E2,1.8E1,5E0,9E0,7.9E1,1.41E2,1.51E2,1.7E1,7E0,5.3E1,3E0,1.052E3,2.8E2,1E0,1E1,7.82E2,1.95E2,6.6E1,1.6E1,8.619E3,6.44E2,3E0,3E0,1.4E1,1.34E2,3.08E2,2.8E1,8E0,5.5E1,4.7E1,9E0,2.9E1,3.4E1,1.1E1,5.16E2,3E0,1.37E2,2.1E1,1.9E1,2.5E1,1E0,1.1E1,1.79E2,6E0,2.59E2,8E0,1.33E2,2.31E2,3.3E1,5.9E1,5.1E1,8.25E2,2.7E1,2E0,5E0,7E0,1.38E2,3.2E1,1E0,1.1E1,1.1E1,7E1,1.4354E4,7E0,1E0,2.41E2,3E0,9.7E1,2.3E1,1E0,2.9E1,7.75E2,3.393E3,8E0,9.1E1,5.5E1,1.32E2,1.435E3,5.3E1,6E0,6E0,2E1,8E0,6E1,8E0,1.81E2,6E0,7E1,8E0,3.3E1,7.43E2,2.216E3,1.22E2,1.01E2,1.17E2,3E0,1.36E2,8.3E1,6.08E2,3E1,5.4E1,1.3E1,1.34E2,9.9E1,1.8E1,2.52E2,1.72E2,3.69E2,1.012E3,6.44E2,3.72E2,1.54E2,2.13E2,2.3E1,4.9E1,8E0,3E0,1.8E1,2.543E3,1.112E3,4.5E1,2.52E2,1.33E2,2E0,2E0,4.1E1,1.7E1,4.6E2,3E0,1E0,8E0,5E0,1.36E2,3.8E1,1.13E2,4E0,3E0,3E0,5E1,1.047E3,5E0,1.8E1,2.62E2,3E1,7.52E2,2.6E1,1.69E2,1E0,6.5E1,8.617E3,2E0,3.2E1,6.12E2],"tree_param":{"num_deleted":"0","num_feature":"53","num_nodes":"335","size_leaf_vector":"1"}},{"base_weights":[4.69149E-3,-2.993035E-1,3.495289E-1,-3.9093974E-1,2.2209767E-1,2.0612267E-1,4.4437036E-1,-8.099847E-2,-4.2006803E-1,-1.1265739E-2,3.6252993E-1,3.072994E-1,7.126949E-2,3.3044517E-1,4.793119E-1,-2.7154195E-1,7.439926E-2,-4.6017128E-1,-3.0349794E-1,-4.0050378E-1,1.275831E-1,-2.4695123E-2,3.913402E-1,3.6437514E-1,-5.408654E-3,-6.498273E-2,2.5405562E-1,2.2225574E-1,4.3639052E-1,2.8810975E-1,4.8519814E-1,-3.8314447E-1,1.7514125E-1,-1.9178082E-1,2.0961003E-1,-9.563758E-2,-4.6727285E-1,7.954545E-2,-3.2685056E-1,3.5714287E-2,-4.9237806E-1,-2.0735294E-1,2.7454782E-1,4.7489712E-1,3.0718416E-1,-6.3725494E-2,3.9512712E-1,1.138088E-1,-4.5689654E-1,-9.784107E-2,4.4642857E-1,3.000624E-1,-3.4274194E-1,3.6622584E-1,1.2573965E-2,-1.4673913E-1,4.6966854E-1,3.97482E-1,-3.137255E-1,4.4468215E-1,4.9255985E-1,-4.1149774E-1,3.2608695E-2,-4.4047618E-1,3.6397058E-1,8.3333336E-2,-3.5745615E-1,-2.4375001E-2,2.5036818E-1,4.1379312E-1,-3.042453E-1,-2.6055047E-1,-4.7491148E-1,4.597701E-1,-6.981982E-2,-3.6752564E-1,-1.7066155E-1,-8.3333336E-2,4.117647E-1,1.6666668E-2,-2.4923313E-2,-4.690476E-1,2.1374045E-1,-1.9196428E-1,3.529412E-1,4.8901582E-1,2.628205E-1,-1.0828026E-1,3.6872038E-1,2.6946107E-1,-4.6071428E-1,4.2529193E-1,1.5800416E-1,-2.4E-1,2.9655173E-1,1.6666668E-2,-4.6802327E-1,-1.4616613E-1,2.05E-1,4.742647E-1,-2.0000001E-2,-2.443182E-2,3.221154E-1,-4.3119267E-1,2.8125E-1,-4E-1,3.8581857E-1,-4.0522876E-1,1.3454199E-1,-4.2391303E-1,1.2765957E-1,4.7332078E-1,-2.1428572E-2,4.625984E-1,-2.8E-1,2.2222223E-2,-4.651163E-1,-2.8333333E-1,4.5799628E-1,4.1789216E-1,4.9607316E-1,1.75E-1,-4.2912772E-1,2.580645E-1,-4.0625E-1,-2.4358975E-2,1.25E-1,-3.2142857E-1,4.390244E-1,2.5773194E-1,-3.2142857E-1,2.9411766E-1,-4.0801886E-1,9.661836E-3,3.551797E-1,2.4662163E-2,-3.5714287E-2,1.02564104E-1,-3.9367816E-1,2.9054055E-1,-3.463983E-1,-4.8372972E-1,-3.9369807E-1,2.4702381E-2,-1.875E-2,2.2047244E-1,-4.53125E-1,-3.7471613E-1,4.5714286E-1,-2.7175844E-1,-5.1975053E-2,1.4285715E-1,-2.375E-2,-1.25E-2,2.34375E-2,-4.8786408E-1,2.0000001E-2,-1.4655173E-1,2.4662163E-2,-3.6144578E-1,2.8333333E-1,4.4194108E-1,-2.413793E-1,4.9156305E-1,2.3076923E-1,4.1129032E-1,-2.9411766E-1,-4.1826922E-1,2.4537038E-2,4.8279816E-1,2.8790322E-1,2.4804687E-2,-4.625E-1,-4.746377E-1,1.6666668E-2,2.9023746E-1,4.8347265E-1,-3.75E-1,3.2650274E-1,4.0983605E-1,-4.7878787E-1,4.677914E-1,-2.1363637E-1,-4.7941175E-1,1.6666668E-2,-2.753984E-1,2.2857143E-3,3.4734514E-1,-2.2666667E-1,4.8880598E-1,-1.6666668E-2,3.9134198E-1,1.2438424E-1,-4.854369E-1,2.1428572E-2,2.2916667E-2,-2E-1,1.25E-2,-4.375E-1,4.0668824E-1,-2.1212122E-1,-4.676259E-1,2E-1,3.425926E-1,-8.627451E-2,2E-1,-2.4404762E-2,3.0882353E-1,-3.2142857E-1,4.9303278E-1,4.07754E-1,-1.1111111E-1,4.817073E-1,-3.8636363E-1,1.875E-2,-0E0,-2.4390245E-2,-2.3958333E-2,2.1428572E-2,3.1338027E-1,4.7169167E-1,4.8680353E-1,6.6176474E-2,4.364035E-1,4.9765173E-1,-2.0833334E-2,2.0000001E-2,-2.2146303E-2,-0E0,1.6964285E-2,-1.875E-2,-2.3333333E-2,1.25E-2,-1.25E-2,1.6666668E-2,6.25E-3,-2.2727273E-2,2.2708334E-2,-6.25E-3,-2.2499999E-2,1.6761364E-2,1.25E-2,-2.4242425E-2,-4.166667E-3,2.2916667E-2,-2.1497585E-2,2.0833334E-2,2.1818181E-2,-7.189543E-3,1.9548459E-2,-2.375E-2,-2.1875E-2,2.1428572E-2,-1.9642858E-2,1.8269232E-2,-2.208589E-2,1.4583333E-2,-2.34375E-2,2.4576271E-2,1.0000001E-2,-2.2424623E-2,-2.4335582E-2,-1.8455883E-2,1.1057693E-2,-2.0818379E-2,1.8932039E-2,-2.2E-2,-2.3670213E-2,1.6666668E-2,-2.560241E-3,-1.9437863E-2,2.4264706E-2,-1.25E-2,1.0256411E-2,-1.5333334E-2,4.7970484E-3,-1.2085308E-2,-2.0000001E-2,1.1290322E-2,6.25E-3,-2.4876848E-2,2.2727273E-2,-1.4062501E-2,-2.2499999E-2,5.357143E-3,2.3913044E-2,-1.5625E-2,2.3238096E-2,1.0377359E-2,-2.198276E-2,7.5000003E-3,2.4781553E-2,2.2164948E-2,-1.875E-2,2.2499999E-2,2.4561403E-2,-2.0833334E-2,1.875E-2,-2.3214286E-2,2.0000001E-2,-2.2750001E-2,7.894737E-3,2.4820574E-2,3.6231882E-3,1.9746376E-2,-2.4358975E-2,1.25E-2,1.25E-2,-2.4087591E-2,2.15758E-2,7.124352E-4,1.4864865E-2,2.457375E-2,1.923077E-2,-2.3317307E-2,2.132353E-2,-9.016394E-3,-9.375E-3,2.4537038E-2,-0E0,-2.4233129E-2,2.429022E-2,-7.5000003E-3,1.2857144E-2,-2.138158E-2,6.25E-3,-2.4550898E-2,1.6206896E-2,-1.880814E-2,6.647157E-3,-1.3938849E-2,-7.5000003E-3,2.106599E-2,1.25E-2,-2.3500001E-2,2.4809161E-2,6.25E-3,2.087838E-2,-1.25E-2,1.7922794E-2,-1.7407408E-2,1.25E-2,-2.4754902E-2,-1.875E-2,1.25E-2,1.25E-2,-2.3913044E-2,2.1219647E-2,-1.7045455E-2,-2.3958333E-2,2.2499999E-2,1.0000001E-2,-2.4444444E-2,-1.25E-2,2.2499999E-2,2.0318726E-2,-2.375E-2,-1.637168E-2,5.2447557E-3,-1.25E-2,1.875E-2,2.0833334E-2,-2.0000001E-2,1.6666668E-2,-2.2916667E-2,2.473273E-2,-0E0,-5.6818186E-4,2.3111783E-2,1.875E-2,-2.0833334E-2,4.545455E-3,2.4894068E-2,1.25E-2,-2.1428572E-2,-1.25E-2,1.25E-2,2.2291666E-2,-1.9565217E-2,1.825658E-2,2.418251E-2,-1.25E-2,2.4485296E-2,-1.0227273E-2,9.574468E-3,-1.12499995E-2,2.4880383E-2,2.4888596E-2,-1.25E-2],"categories":[],"categories_nodes":[],"categories_segments":[],"categories_sizes":[],"default_left":[0,0,0,0,0,0,0,0,0,0,0,0,0,0,0,0,0,0,0,0,0,0,0,0,0,0,0,0,0,0,0,0,0,0,0,0,0,0,0,0,0,0,0,0,0,0,0,0,0,0,0,0,0,0,0,0,0,0,0,0,0,0,0,0,0,0,0,0,0,0,0,0,0,0,0,0,0,0,0,0,0,0,0,0,0,0,0,0,0,0,0,0,0,0,0,0,0,0,0,0,0,0,0,0,0,0,0,0,0,0,0,0,0,0,0,0,0,0,0,0,0,0,0,0,0,0,0,0,0,0,0,0,0,0,0,0,0,0,0,0,0,0,0,0,0,0,0,0,0,0,0,0,0,0,0,0,0,0,0,0,0,0,0,0,0,0,0,0,0,0,0,0,0,0,0,0,0,0,0,0,0,0,0,0,0,0,0,0,0,0,0,0,0,0,0,0,0,0,0,0,0,0,0,0,0,0,0,0,0,0,0,0,0,0,0,0,0,0,0,0,0,0,0,0,0,0,0,0,0,0,0,0,0,0,0,0,0,0,0,0,0,0,0,0,0,0,0,0,0,0,0,0,0,0,0,0,0,0,0,0,0,0,0,0,0,0,0,0,0,0,0,0,0,0,0,0,0,0,0,0,0,0,0,0,0,0,0,0,0,0,0,0,0,0,0,0,0,0,0,0,0,0,0,0,0,0,0,0,0,0,0,0,0,0,0,0,0,0,0,0,0,0,0,0,0,0,0,0,0,0,0,0,0,0,0,0,0,0,0,0,0,0,0,0,0,0,0,0,0,0,0,0,0,0,0,0,0,0,0,0,0,0,0,0,0,0,0,0,0,0,0,0,0,0,0,0,0,0,0,0,0,0,0,0,0,0,0,0,0],"id":4,"left_children":[1,3,5,7,9,11,13,15,17,19,21,23,25,27,29,31,33,35,37,39,41,-1,43,45,47,49,51,53,55,57,59,61,63,65,67,69,71,73,75,77,79,81,83,85,87,89,91,93,95,97,99,101,103,105,107,109,111,113,115,117,119,121,123,125,127,129,131,-1,133,135,137,139,141,143,145,147,149,151,153,-1,-1,155,157,159,161,163,165,167,169,171,173,175,177,179,181,-1,183,185,187,189,-1,-1,191,193,195,197,199,201,203,205,207,209,-1,211,213,-1,215,217,219,221,223,225,227,229,231,-1,233,235,237,239,241,243,245,247,249,-1,251,253,255,257,259,261,263,-1,-1,265,267,269,271,273,275,277,-1,-1,-1,279,-1,281,-1,283,285,287,289,291,293,295,297,299,-1,301,303,-1,305,307,-1,309,311,313,315,317,319,321,323,325,-1,327,329,331,333,335,-1,337,339,341,-1,-1,343,-1,345,347,349,351,353,355,357,359,-1,361,363,365,367,369,371,373,-1,375,-1,-1,-1,377,379,381,383,385,387,-1,-1,-1,-1,-1,-1,-1,-1,-1,-1,-1,-1,-1,-1,-1,-1,-1,-1,-1,-1,-1,-1,-1,-1,-1,-1,-1,-1,-1,-1,-1,-1,-1,-1,-1,-1,-1,-1,-1,-1,-1,-1,-1,-1,-1,-1,-1,-1,-1,-1,-1,-1,-1,-1,-1,-1,-1,-1,-1,-1,-1,-1,-1,-1,-1,-1,-1,-1,-1,-1,-1,-1,-1,-1,-1,-1,-1,-1,-1,-1,-1,-1,-1,-1,-1,-1,-1,-1,-1,-1,-1,-1,-1,-1,-1,-1,-1,-1,-1,-1,-1,-1,-1,-1,-1,-1,-1,-1,-1,-1,-1,-1,-1,-1,-1,-1,-1,-1,-1,-1,-1,-1,-1,-1,-1,-1,-1,-1,-1,-1,-1,-1,-1,-1,-1,-1,-1,-1,-1,-1,-1,-1,-1,-1,-1,-1,-1,-1,-1,-1,-1,-1,-1,-1,-1,-1,-1,-1,-1,-1,-1,-1,-1,-1],"loss_changes":[5.295744E3,1.2829114E3,3.2182715E2,2.0613062E2,1.315499E2,1.2855923E2,5.655078E1,5.814468E1,9.7443115E1,8.1605385E1,6.202649E1,9.6095825E1,1.0065768E2,3.8266907E1,1.2127686E1,4.4035667E1,3.8981827E1,4.015625E1,4.7846313E1,1.5928246E1,5.484299E1,0E0,1.690625E1,5.996521E1,4.48346E1,3.8962032E1,4.749314E1,5.0046944E1,3.2864044E1,2.1715E1,2.9345703E0,8.335716E0,2.0735975E1,1.6666351E1,2.0522532E1,3.1794703E1,2.3928467E1,1.7524147E1,3.1950012E1,3.1680672E0,1.8150482E0,3.7567543E1,2.8374062E1,3.509491E0,3.100048E1,4.0599174E1,3.0317749E1,4.2679512E1,1.6859283E0,3.1889956E1,3.488287E0,2.803865E1,6.965147E0,1.491156E1,3.4502514E1,7.051284E0,5.448517E0,1.2393551E1,6.060495E0,1.5987335E1,2.1376953E0,6.9098053E0,4.656228E0,1.1701012E0,7.1372013E0,9.824252E0,7.631546E0,0E0,1.7126923E1,3.1246824E0,7.7533894E0,2.5884579E1,1.0328369E1,2.6746712E0,2.480196E1,2.3872559E1,1.2500662E1,4.8517857E0,7.582722E-1,0E0,0E0,3.6291466E0,1.3264335E1,9.1244755E0,3.5175705E1,6.3516235E-1,6.5706716E0,2.9358576E1,9.587524E0,2.7932457E1,1.7060299E0,2.946698E1,4.3321262E1,3.5110146E1,3.810347E1,0E0,1.7295189E0,3.6029625E1,1.8512424E1,1.7600517E0,0E0,0E0,2.1305008E1,5.291506E0,1.4552083E0,7.1875E-1,1.2053452E1,5.8715E0,2.4102646E1,1.9396486E0,3.923118E0,1.8578491E0,0E0,2.8381119E0,1.886591E0,0E0,4.5377254E-1,4.3877974E0,3.0349731E0,9.856567E0,5.8618164E-1,2.8291667E0,3.8014374E0,1.7211983E0,7.5104165E-1,0E0,3.9583334E-1,8.887987E-1,1.1072655E0,5.4709067E0,4.04329E0,1.0919118E0,4.0137367E0,1.3616802E1,1.4239334E1,0E0,2.799107E0,5.221612E0,5.857559E0,1.1523241E1,2.6419785E1,4.347168E0,2.02191E1,0E0,0E0,1.3433763E1,1.6888866E0,1.7981873E1,8.180671E-1,9.435318E0,1.3522102E1,1.6663595E0,0E0,0E0,0E0,1.2833939E0,0E0,4.8239126E0,0E0,3.492341E0,3.6337862E0,2.9899445E0,6.817241E0,1.373291E-3,1.8951924E0,4.3081493E0,2.1097689E0,3.307787E0,0E0,1.8500595E0,1.42668915E1,0E0,8.25161E-1,8.3185196E-1,0E0,4.4326935E1,3.7751465E0,8.228365E0,1.8620941E1,3.039978E0,4.641037E-1,3.7006912E0,1.1191858E1,1.2539139E0,0E0,6.0775482E1,3.2169624E1,8.377951E0,8.816667E0,2.9761505E-1,0E0,1.953099E1,4.5031006E1,8.556061E-1,0E0,0E0,4.875E-1,0E0,7.921195E-1,1.2414429E1,6.050568E0,2.070984E0,1.8000001E0,1.4272884E1,1.1790432E1,4.875E-1,0E0,2.7656865E0,1.407738E0,9.755249E-1,8.54525E0,1.4930555E0,1.5096512E0,6.980519E-1,0E0,2.5E-1,0E0,0E0,0E0,1.3428401E1,1.6915283E0,8.516388E-1,2.3460648E0,9.341549E0,8.703613E-1,0E0,0E0,0E0,0E0,0E0,0E0,0E0,0E0,0E0,0E0,0E0,0E0,0E0,0E0,0E0,0E0,0E0,0E0,0E0,0E0,0E0,0E0,0E0,0E0,0E0,0E0,0E0,0E0,0E0,0E0,0E0,0E0,0E0,0E0,0E0,0E0,0E0,0E0,0E0,0E0,0E0,0E0,0E0,0E0,0E0,0E0,0E0,0E0,0E0,0E0,0E0,0E0,0E0,0E0,0E0,0E0,0E0,0E0,0E0,0E0,0E0,0E0,0E0,0E0,0E0,0E0,0E0,0E0,0E0,0E0,0E0,0E0,0E0,0E0,0E0,0E0,0E0,0E0,0E0,0E0,0E0,0E0,0E0,0E0,0E0,0E0,0E0,0E0,0E0,0E0,0E0,0E0,0E0,0E0,0E0,0E0,0E0,0E0,0E0,0E0,0E0,0E0,0E0,0E0,0E0,0E0,0E0,0E0,0E0,0E0,0E0,0E0,0E0,0E0,0E0,0E0,0E0,0E0,0E0,0E0,0E0,0E0,0E0,0E0,0E0,0E0,0E0,0E0,0E0,0E0,0E0,0E0,0E0,0E0,0E0,0E0,0E0,0E0,0E0,0E0,0E0,0E0,0E0,0E0,0E0,0E0,0E0,0E0,0E0,0E0,0E0,0E0,0E0,0E0,0E0,0E0,0E0,0E0,0E0,0E0,0E0,0E0,0E0,0E0],"parents":[2147483647,0,0,1,1,2,2,3,3,4,4,5,5,6,6,7,7,8,8,9,9,10,10,11,11,12,12,13,13,14,14,15,15,16,16,17,17,18,18,19,19,20,20,22,22,23,23,24,24,25,25,26,26,27,27,28,28,29,29,30,30,31,31,32,32,33,33,34,34,35,35,36,36,37,37,38,38,39,39,40,40,41,41,42,42,43,43,44,44,45,45,46,46,47,47,48,48,49,49,50,50,51,51,52,52,53,53,54,54,55,55,56,56,57,57,58,58,59,59,60,60,61,61,62,62,63,63,64,64,65,65,66,66,68,68,69,69,70,70,71,71,72,72,73,73,74,74,75,75,76,76,77,77,78,78,81,81,82,82,83,83,84,84,85,85,86,86,87,87,88,88,89,89,90,90,91,91,92,92,93,93,94,94,96,96,97,97,98,98,99,99,102,102,103,103,104,104,105,105,106,106,107,107,108,108,109,109,110,110,111,111,113,113,114,114,116,116,117,117,118,118,119,119,120,120,121,121,122,122,123,123,124,124,126,126,127,127,128,128,129,129,130,130,131,131,132,132,133,133,134,134,136,136,137,137,138,138,139,139,140,140,141,141,142,142,145,145,146,146,147,147,148,148,149,149,150,150,151,151,155,155,157,157,159,159,160,160,161,161,162,162,163,163,164,164,165,165,166,166,167,167,169,169,170,170,172,172,173,173,175,175,176,176,177,177,178,178,179,179,180,180,181,181,182,182,183,183,185,185,186,186,187,187,188,188,189,189,191,191,192,192,193,193,196,196,198,198,199,199,200,200,201,201,202,202,203,203,204,204,205,205,207,207,208,208,209,209,210,210,211,211,212,212,213,213,215,215,219,219,220,220,221,221,222,222,223,223,224,224],"right_children":[2,4,6,8,10,12,14,16,18,20,22,24,26,28,30,32,34,36,38,40,42,-1,44,46,48,50,52,54,56,58,60,62,64,66,68,70,72,74,76,78,80,82,84,86,88,90,92,94,96,98,100,102,104,106,108,110,112,114,116,118,120,122,124,126,128,130,132,-1,134,136,138,140,142,144,146,148,150,152,154,-1,-1,156,158,160,162,164,166,168,170,172,174,176,178,180,182,-1,184,186,188,190,-1,-1,192,194,196,198,200,202,204,206,208,210,-1,212,214,-1,216,218,220,222,224,226,228,230,232,-1,234,236,238,240,242,244,246,248,250,-1,252,254,256,258,260,262,264,-1,-1,266,268,270,272,274,276,278,-1,-1,-1,280,-1,282,-1,284,286,288,290,292,294,296,298,300,-1,302,304,-1,306,308,-1,310,312,314,316,318,320,322,324,326,-1,328,330,332,334,336,-1,338,340,342,-1,-1,344,-1,346,348,350,352,354,356,358,360,-1,362,364,366,368,370,372,374,-1,376,-1,-1,-1,378,380,382,384,386,388,-1,-1,-1,-1,-1,-1,-1,-1,-1,-1,-1,-1,-1,-1,-1,-1,-1,-1,-1,-1,-1,-1,-1,-1,-1,-1,-1,-1,-1,-1,-1,-1,-1,-1,-1,-1,-1,-1,-1,-1,-1,-1,-1,-1,-1,-1,-1,-1,-1,-1,-1,-1,-1,-1,-1,-1,-1,-1,-1,-1,-1,-1,-1,-1,-1,-1,-1,-1,-1,-1,-1,-1,-1,-1,-1,-1,-1,-1,-1,-1,-1,-1,-1,-1,-1,-1,-1,-1,-1,-1,-1,-1,-1,-1,-1,-1,-1,-1,-1,-1,-1,-1,-1,-1,-1,-1,-1,-1,-1,-1,-1,-1,-1,-1,-1,-1,-1,-1,-1,-1,-1,-1,-1,-1,-1,-1,-1,-1,-1,-1,-1,-1,-1,-1,-1,-1,-1,-1,-1,-1,-1,-1,-1,-1,-1,-1,-1,-1,-1,-1,-1,-1,-1,-1,-1,-1,-1,-1,-1,-1,-1,-1,-1,-1],"split_conditions":[5.20648E1,4.8206668E2,3.9913992E2,-1.0844097E0,5.354583E2,2.1791666E0,1.24364E2,1.05119E1,2.33447E1,3.219E2,3.492E2,3.8611112E0,2.489726E2,4.6391095E2,3.864E2,7.06314E1,3.745E2,-1.55E1,-1.5107639E1,2.3428703E1,2.6049306E0,-1.4494545E-2,-2.138889E1,3.461E2,2.2935339E1,3.8099825E0,1.7423391E3,-1.4673612E-1,1.6064098E1,4.17E0,1.78686E2,3.8138382E1,1.44E0,-1.2E1,-3.2E1,2.456328E0,-1.5E1,4.27253E1,4.17577E1,5.3E-1,1.46E0,4.295E2,4.234E2,3.43E0,4.0558E0,3.097222E2,9.317918E2,7.305556E-2,-5E0,2.09E0,-4.361111E0,3.1983734E2,3.12E0,1.0387797E1,1.59E0,2.69E0,2.2849316E3,1.129351E2,2.6265798E0,7.7667224E-1,1.3593424E1,1.18E0,4.491E2,1.66E0,-3.89E0,4.069E2,-2.9645834E0,-1.3805521E-2,2.8063476E0,5.118089E2,5.87713E1,8.5837E0,6.63993E1,1.340956E2,2.2390277E0,4.81E2,1.935764E-1,7.7778E0,-2.63E0,2.4064302E-3,-1.6829683E-2,3.450341E2,2.2935339E1,1.32E0,4.07E0,-1.5E1,6.223941E0,4.9907196E2,3.7372E1,-1E0,3.7635E2,9.88396E1,3.390816E2,6.98069E1,3.568E2,1.2279869E-3,3.966E2,1.0416666E0,2.5070204E1,5.453E2,-1.5877042E-2,-8.171165E-3,4.588E2,2.1567818E1,-2.91E0,4.058E2,6.308547E2,2.6733334E0,4.234E2,-3.52E0,6.2E1,5.482906E2,-8.166823E-3,3.837972E2,3.53E0,3.9932877E-2,1.79E0,3.969E2,3.962E2,1.2037885E3,1.95614E1,3.9150833E2,7.48E0,4.4440555E2,-1.46E0,-8.218437E-3,1.21E0,2.18E0,4.733E2,-1.9361111E0,-2.8202777E0,3.183E2,5E0,-1.8E1,1.05E2,1.7175168E-2,4.3330695E2,3.902E2,4.517747E2,2.453889E0,1.44066105E1,1.8E1,9.191667E-1,1.1595458E-2,-2.1695436E-3,1.7276388E0,3.64E0,3.09E2,2.33E0,6.4E-1,1.9943248E0,-1.38E0,-1.5473188E-3,-8.502185E-4,5.540073E-4,4.1970694E2,2.969653E-2,4.8720557E2,1.847384E-2,3.9960538E2,4.76068E1,3.31E0,3.19E0,6.223941E0,2.76E0,-7.4149305E-1,1.076963E2,-2.9E1,2.289936E-2,-2.89E0,5.3695734E2,1.6693188E-2,1.24E0,4.7E-1,2.7887226E-4,6.30888E1,3.104E2,-1.96E0,3.6784167E2,3.721E2,3.104E2,7.68E0,3.755E2,5.5E-1,9.774953E-4,-1.6E1,1.484549E2,3.439E2,5.83691E1,-3.75E-2,-1.5120626E-3,7.88959E2,2.1879168E0,-5.35E0,6.9837123E-3,7.956559E-3,3.65E0,2.0757914E-4,4.4444E0,4.832253E2,4.531E2,-3.09E0,4.38E0,8.003413E2,-6E0,4.957E2,-2.669318E-2,1.5445306E1,5.893E2,5.72E0,1.9647284E1,3.819E2,9.7E-1,3E0,4.8950914E-4,1.1E0,-5.1691234E-3,-1.1702455E-2,1.1129576E-2,2.35E0,1.652474E1,3.841E2,1.288563E1,1.9936285E0,1.1E1,-2.2150362E-2,2.1630914E-3,-2.4647295E-2,-4.947636E-3,8.412242E-3,-1.649946E-3,-2.061822E-2,6.163001E-4,-7.608056E-4,4.4972004E-4,3.588462E-3,-1.1985743E-2,1.5998786E-2,-7.332325E-3,-6.7753317E-3,2.2827329E-3,1.540482E-3,-8.376569E-3,-1.0405183E-4,1.682514E-3,-1.4514598E-2,1.8090462E-2,9.946564E-3,-8.939177E-4,1.798203E-2,-9.8055545E-3,-1.2731433E-3,1.4436126E-3,-1.20070875E-2,1.1588037E-3,-1.2875465E-2,4.3144943E-3,-3.8526596E-3,8.075652E-3,8.280778E-3,-1.4758343E-2,-2.6611237E-2,-3.13949E-2,1.2168229E-3,-2.2989318E-2,8.99888E-3,-6.328076E-3,-1.0251927E-2,3.0190886E-3,-4.696661E-3,-9.524703E-3,1.3335288E-2,-4.595035E-3,2.7127564E-3,-7.87282E-3,2.1541268E-3,-7.236433E-3,-5.823642E-4,3.7936866E-4,9.4549655E-4,-1.2119225E-2,3.8464524E-2,-7.237971E-3,-1.1799586E-2,1.7988087E-4,7.138032E-3,-8.518756E-4,1.6953861E-2,4.006767E-3,-1.53631745E-2,2.752912E-3,2.9099626E-2,3.502634E-2,-4.4665756E-3,6.8236887E-3,3.8698282E-2,-2.7204037E-3,3.8767697E-3,-5.750549E-3,2.8977424E-3,-9.891075E-3,5.351454E-3,2.0384807E-2,1.813683E-3,1.3073534E-2,-6.66576E-3,1.0323108E-3,3.2442807E-5,-9.014005E-3,8.785218E-3,1.6599298E-4,3.1768218E-2,2.845564E-2,8.695337E-3,-1.27181355E-2,1.9036353E-2,-1.0417908E-3,-2.8124868E-3,2.1694278E-2,-7.5544254E-3,-2.3764262E-2,1.2420217E-2,-1.3311506E-4,4.374403E-3,-2.1076798E-2,1.0570884E-3,-1.3109512E-2,4.2351307E-3,-1.157698E-2,3.8767576E-3,-1.276654E-2,-2.2315443E-3,1.1771405E-2,1.8117905E-3,-1.795876E-2,2.729026E-2,4.8155952E-2,2.1064973E-2,-7.1297945E-3,3.0156268E-2,-7.796371E-3,8.0266595E-4,-3.0255485E-2,-1.3602567E-2,6.5285387E-3,5.165219E-4,-1.9861876E-3,1.4807201E-2,-2.8615598E-2,-7.2283032E-3,4.5911957E-2,7.781604E-3,-1.0077685E-2,-3.4207702E-4,2.1241724E-3,8.299264E-3,-6.020242E-3,-2.8016567E-3,1.2457758E-3,-4.6139956E-3,5.4441276E-3,1.2673325E-2,-2.6581574E-2,3.7125796E-3,-1.1683923E-2,2.129215E-2,2.6345642E-3,-2.964139E-4,3.1409364E-2,5.0010084E-4,-8.266032E-4,1.7567307E-3,3.398409E-2,5.793154E-4,-1.3255895E-3,-1.4781058E-3,1.0659695E-4,1.6554309E-2,-2.0789936E-2,1.196757E-2,2.1657282E-2,-1.0803813E-2,5.5085283E-2,-5.8228197E-3,5.460304E-3,-3.4793895E-2,4.6852414E-2,4.6184175E-2,-1.03594065E-2],"split_indices":[41,12,13,21,12,28,41,41,41,11,9,37,41,13,10,40,1,37,37,50,29,0,36,11,50,29,42,21,50,26,41,50,3,34,32,52,4,5,41,0,25,11,8,19,41,42,42,21,4,27,36,13,3,50,26,25,42,5,29,52,50,25,6,14,0,10,21,0,52,42,38,42,5,42,29,6,21,39,14,0,0,40,50,27,27,30,29,13,42,31,1,41,13,5,1,0,9,37,50,7,0,0,11,50,0,9,42,20,9,0,40,5,0,12,3,0,24,7,7,5,40,12,3,12,0,0,3,3,1,20,20,7,33,35,38,0,12,9,5,28,50,30,28,0,0,28,26,11,3,25,52,14,0,0,0,13,0,12,0,13,5,18,25,29,3,21,5,4,0,19,13,0,15,24,0,38,1,15,12,11,1,26,10,26,0,34,42,1,42,21,0,39,29,0,0,0,3,0,39,39,1,18,0,42,4,1,0,50,9,23,50,10,3,4,0,0,0,0,0,23,50,8,50,29,33,0,0,0,0,0,0,0,0,0,0,0,0,0,0,0,0,0,0,0,0,0,0,0,0,0,0,0,0,0,0,0,0,0,0,0,0,0,0,0,0,0,0,0,0,0,0,0,0,0,0,0,0,0,0,0,0,0,0,0,0,0,0,0,0,0,0,0,0,0,0,0,0,0,0,0,0,0,0,0,0,0,0,0,0,0,0,0,0,0,0,0,0,0,0,0,0,0,0,0,0,0,0,0,0,0,0,0,0,0,0,0,0,0,0,0,0,0,0,0,0,0,0,0,0,0,0,0,0,0,0,0,0,0,0,0,0,0,0,0,0,0,0,0,0,0,0,0,0,0,0,0,0,0,0,0,0,0,0,0,0,0,0,0,0],"split_type":[0,0,0,0,0,0,0,0,0,0,0,0,0,0,0,0,0,0,0,0,0,0,0,0,0,0,0,0,0,0,0,0,0,0,0,0,0,0,0,0,0,0,0,0,0,0,0,0,0,0,0,0,0,0,0,0,0,0,0,0,0,0,0,0,0,0,0,0,0,0,0,0,0,0,0,0,0,0,0,0,0,0,0,0,0,0,0,0,0,0,0,0,0,0,0,0,0,0,0,0,0,0,0,0,0,0,0,0,0,0,0,0,0,0,0,0,0,0,0,0,0,0,0,0,0,0,0,0,0,0,0,0,0,0,0,0,0,0,0,0,0,0,0,0,0,0,0,0,0,0,0,0,0,0,0,0,0,0,0,0,0,0,0,0,0,0,0,0,0,0,0,0,0,0,0,0,0,0,0,0,0,0,0,0,0,0,0,0,0,0,0,0,0,0,0,0,0,0,0,0,0,0,0,0,0,0,0,0,0,0,0,0,0,0,0,0,0,0,0,0,0,0,0,0,0,0,0,0,0,0,0,0,0,0,0,0,0,0,0,0,0,0,0,0,0,0,0,0,0,0,0,0,0,0,0,0,0,0,0,0,0,0,0,0,0,0,0,0,0,0,0,0,0,0,0,0,0,0,0,0,0,0,0,0,0,0,0,0,0,0,0,0,0,0,0,0,0,0,0,0,0,0,0,0,0,0,0,0,0,0,0,0,0,0,0,0,0,0,0,0,0,0,0,0,0,0,0,0,0,0,0,0,0,0,0,0,0,0,0,0,0,0,0,0,0,0,0,0,0,0,0,0,0,0,0,0,0,0,0,0,0,0,0,0,0,0,0,0,0,0,0,0,0,0,0,0,0,0,0,0,0,0,0,0,0,0,0,0,0],"sum_hessian":[5.0516E4,2.6848E4,2.3668E4,2.2835E4,4.013E3,9.423E3,1.4245E4,1.962E3,2.0873E4,1.508E3,2.505E3,5.383E3,4.04E3,3.346E3,1.0899E4,8.81E2,1.081E3,1.5528E4,5.345E3,3.96E2,1.112E3,8.1E1,2.424E3,4.552E3,8.31E2,2.315E3,1.725E3,1.657E3,1.689E3,3.27E2,1.0572E4,7.05E2,1.76E2,3.64E2,7.17E2,2.97E2,1.5231E4,3.07E2,5.038E3,6.9E1,3.27E2,3.39E2,7.73E2,1.214E3,1.21E3,3.05E2,4.247E3,6.58E2,1.73E2,2.176E3,1.39E2,1.602E3,1.23E2,9.82E2,6.75E2,9.1E1,1.598E3,2.77E2,5E1,1.635E3,8.937E3,6.6E2,4.5E1,4.1E1,1.35E2,1.37E2,2.27E2,3.9E1,6.78E2,8.6E1,2.11E2,5.44E2,1.4687E4,8.6E1,2.21E2,3.996E3,1.042E3,5.3E1,1.6E1,2E0,3.25E2,2.09E2,1.3E2,1.11E2,6.62E2,1.137E3,7.7E1,1.56E2,1.054E3,1.66E2,1.39E2,3.767E3,4.8E2,2.24E2,4.34E2,2E0,1.71E2,1.877E3,2.99E2,1.35E2,4E0,4.3E1,1.559E3,1.08E2,1.5E1,2.4E1,9.58E2,1.52E2,5.23E2,4.5E1,4.6E1,1.592E3,6E0,2.53E2,2.4E1,8E0,4.2E1,2.9E1,1.606E3,4.07E2,8.53E3,1.9E1,6.41E2,3E1,1.5E1,3.8E1,3E0,1.3E1,1.22E2,9.6E1,4.1E1,1.6E1,2.11E2,2.06E2,4.72E2,7.3E1,1.3E1,3.8E1,1.73E2,7.3E1,4.71E2,1.3244E4,1.443E3,8.3E1,3E0,1.26E2,9.5E1,3.962E3,3.4E1,5.62E2,4.8E2,3.4E1,1.9E1,1E0,1.5E1,2.05E2,4E0,5.7E1,7.3E1,8.2E1,2.9E1,5.76E2,8.6E1,1.125E3,1.2E1,6.1E1,1.6E1,1.03E2,5.3E1,4.35E2,6.19E2,1.27E2,3.9E1,1.37E2,2E0,1.136E3,2.631E3,1.15E2,3.65E2,6E1,1.64E2,3.25E2,1.09E2,1.69E2,2E0,1.003E3,8.74E2,2.25E2,7.4E1,1.33E2,2E0,1.154E3,4.05E2,1.02E2,6E0,1.1E1,4E0,1E0,2.3E1,9.26E2,3.2E1,1.38E2,1.4E1,2.69E2,2.54E2,4E0,4.1E1,3.3E1,1.3E1,1.219E3,3.73E2,8E0,2.45E2,2.1E1,3E0,2E0,4E1,2.3E1,6E0,1.41E2,1.465E3,3.4E2,6.7E1,2.27E2,8.303E3,5E0,1.4E1,6.21E2,2E1,2.7E1,3E0,1.4E1,1E0,1E0,2E0,3E0,1E1,1.19E2,3E0,9E0,8.7E1,9E0,3.2E1,5E0,1.1E1,2.06E2,5E0,5.4E1,1.52E2,4.53E2,1.9E1,7E0,6E0,1.3E1,2.5E1,1.62E2,1.1E1,1.5E1,5.8E1,7.4E1,3.97E2,1.2905E4,3.39E2,5.1E1,1.392E3,1.02E2,2.4E1,9.3E1,2E0,1.65E2,3.797E3,3.3E1,1E0,3.8E1,5.24E2,2.7E2,2.1E2,4E0,3E1,3E0,2.02E2,1E1,4.7E1,6.9E1,1.3E1,2.2E1,7E0,5.24E2,5.2E1,5.7E1,2.9E1,1.029E3,9.6E1,3E0,9E0,5.6E1,5E0,3E0,1.3E1,4E0,9.9E1,1.8E1,4.17E2,2.06E2,4.13E2,3.8E1,1E0,1E0,1.36E2,7.51E2,3.85E2,1.1E2,2.521E3,1.2E1,1.03E2,3.05E2,6E1,7E0,5.3E1,2E0,1.62E2,3.16E2,9E0,3.4E1,7.5E1,3E0,1.66E2,1.44E2,8.59E2,5.97E2,2.77E2,2.9E1,1.96E2,2.5E1,4.9E1,1.3E2,3E0,1.109E3,4.5E1,2.71E2,1.34E2,1E0,1.01E2,3E0,1E0,1E0,2.2E1,9.05E2,2.1E1,2.3E1,9E0,4E0,1.34E2,5E0,9E0,2.5E2,1.9E1,1.12E2,1.42E2,1E0,3E0,2.9E1,4E0,2E0,1.1E1,1.215E3,4E0,4.3E1,3.3E2,3E0,5E0,1E1,2.35E2,1E0,2E1,1E0,1E0,1.19E2,2.2E1,1.51E2,1.314E3,1E0,3.39E2,2.1E1,4.6E1,1.9E1,2.08E2,8.302E3,1E0],"tree_param":{"num_deleted":"0","num_feature":"53","num_nodes":"389","size_leaf_vector":"1"}},{"base_weights":[5.938595E-3,-2.8762755E-1,3.5499176E-1,-3.7790596E-1,2.224376E-1,2.3436478E-1,4.591746E-1,-6.7842945E-2,-4.071727E-1,-7.756949E-3,3.6032546E-1,1.3977823E-1,3.7532014E-1,3.9241645E-1,4.896974E-1,-2.0419325E-1,9.552402E-2,-4.285354E-1,-1.2137559E-1,-4E-1,1.266262E-1,-2.4695123E-2,3.882E-1,2.5843668E-1,-3.404835E-4,3.965228E-1,-3.2936507E-1,2.9539952E-1,4.3759426E-1,4.9314487E-1,3.75E-1,-3.398058E-1,5.5702917E-2,1.9341564E-1,-2.8457448E-1,-1.071953E-1,-4.3994567E-1,-2.710177E-2,-2.6810345E-1,6.428572E-2,-2.4923313E-2,-2.0661157E-1,2.7939317E-1,4.755365E-1,3.1175148E-1,2.8253683E-1,-3.1205675E-1,-3.4828592E-2,4.8214287E-1,-2.4468085E-2,4.0652278E-1,-4.0869564E-1,2.2916667E-2,3.878365E-1,-9.704641E-2,-8.396947E-2,4.645123E-1,4.1293532E-1,4.9508828E-1,4.7540984E-1,1.0714286E-1,2.1568628E-1,-3.8152012E-1,-1.6894977E-1,3.6477986E-1,2.3473836E-1,-2.4404762E-2,-4.6180555E-1,2.888889E-1,-4.022663E-1,2.0972644E-1,-4.659091E-1,-3.4308642E-1,7.982456E-2,-2.0895523E-1,-3.8582677E-1,-4.25E-2,-1.2820514E-1,2.96875E-1,4.7887325E-1,-3.7201366E-1,-1.5350877E-1,3.5176992E-1,2.4646893E-2,2.9326922E-1,-1.0062893E-1,3.671477E-1,3.945372E-2,3.4245035E-1,-2.4780702E-2,4.4642857E-1,-8.6243615E-2,2.7088606E-1,-1.25E-2,4.871795E-1,4.6804804E-1,3.0330524E-1,3.3333334E-1,-4.6728972E-1,4.2827225E-1,-4.0816328E-1,2.4479168E-2,-2.4473684E-1,-4.0298507E-1,2.4615385E-1,4.668124E-1,-2.1428572E-2,-2.5E-1,4.9166667E-1,-1.25E-1,4.9533525E-1,4.8618785E-1,-1.6666668E-2,-2.25E-1,2.3529412E-1,-2.2916667E-2,4.125E-1,4.1666666E-1,-4.029052E-1,2.1323529E-1,-3.3881578E-1,4.8913044E-1,-4.318182E-1,-3.611111E-1,2.8503937E-1,-4.753521E-1,1.6666668E-2,4.5588234E-1,-2.0833333E-1,-4.43769E-1,1.6E-1,-5.1612902E-2,4.4E-1,-4.7923863E-1,-3.1077695E-1,-5.4545455E-2,-3.6400953E-1,-3.1578946E-1,1.5861344E-1,-3.147482E-1,3.0172414E-1,4.4444446E-2,-4.421365E-1,3.2394367E-1,-2.423077E-1,1.4285715E-1,-4.2105263E-1,-2.0000001E-2,4.107143E-1,2.4642857E-2,-1.25E-2,-4.528302E-1,3.7931034E-1,-3.0588236E-1,2.8333333E-1,4.349662E-1,-2.1839081E-1,-2.9545453E-1,4.4578314E-1,-4.07767E-1,4.5614034E-1,4.825462E-1,2.8540462E-1,4.4709897E-1,-2.8610355E-1,3.759802E-1,1.2145749E-2,2.4074076E-2,-1.25E-2,-1.9124606E-1,3.7002776E-2,3.3194444E-1,-3.472222E-1,2.4865592E-2,2.5E-1,-2.3809524E-2,4.75605E-1,1.2241054E-1,3.9782822E-1,-1.25E-2,2.1875E-2,-4.854369E-1,-0E0,-3.448276E-1,4.5199567E-1,2.0000001E-2,-2.4444444E-2,-2.8176796E-1,2.2499999E-2,2.0000001E-2,-4.6031746E-1,3.611111E-1,-2.9166666E-1,4.881933E-1,4.1020116E-1,-2.3529412E-2,2.0833334E-2,2.4858756E-2,1.25E-1,-1.6666668E-2,1.25E-2,3.809524E-1,4.961765E-1,-1.25E-2,2.4583334E-2,1.4285715E-1,-3.9285713E-1,3.625E-1,-2.0833333E-1,-1.25E-2,2.1794872E-2,-1.25E-2,2.3529412E-2,1.4285715E-2,-2.048611E-2,1.9607844E-2,-1.5277778E-2,-2.1755725E-2,1.25E-2,2.4817519E-2,-1.25E-2,1.25E-2,-2.3809524E-2,3.846154E-3,-2.4404762E-2,-2.4218751E-2,1.6266556E-2,1.6666668E-2,-2.4464285E-2,-1.25E-2,2.4242425E-2,1.6666668E-2,-1.75E-2,-2.4898374E-2,-1.3988095E-2,1.625E-2,-2.0833334E-2,5.227273E-3,-2.1195652E-2,2.4534162E-2,-6.6666673E-3,-2.4287788E-2,-2.034632E-2,-5.926295E-3,-2.2449713E-2,1.0150376E-2,-1.4685315E-2,-4.142012E-3,-1.8853936E-2,1.9642858E-2,-2.1646341E-2,2.0898437E-2,3.1518624E-3,-2.0104168E-2,1.1538462E-2,-5.263158E-3,2.4375001E-2,-1.7045455E-2,1.9791668E-2,-2.307099E-2,1.7857144E-3,-1.0000001E-2,2.2807017E-2,-0E0,-1.875E-2,-1.875E-2,1.25E-2,-2.3611112E-2,1.25E-2,2.2222223E-2,-1.25E-2,-2.446352E-2,-9.09091E-3,2.2222223E-2,-1.6666668E-2,1.25E-2,-1.875E-2,2.3913044E-2,-1.5625E-2,2.3858696E-2,1.4285715E-2,-2.0982144E-2,7.0312503E-3,-2.1052632E-2,1.875E-2,2.4666667E-2,-0E0,-2.4712643E-2,2.9411765E-3,-0E0,2.4528302E-2,9.52381E-3,2.4732335E-2,6.559767E-3,2.1785714E-2,-1.4705883E-2,2.4548737E-2,-2.1214789E-2,9.226191E-3,2.0989096E-2,1.0291165E-2,2.3541667E-2,-2.0898437E-2,5.063291E-3,-1.6161328E-2,9.131076E-3,-1.0421837E-2,3.076923E-3,1.9510135E-2,1.25E-2,-2.2580644E-2,-1.6666668E-2,2.1875E-2,3.9772727E-3,2.4116714E-2,1.9777399E-2,-1.0520834E-2,-2.2413794E-2,2.1116752E-2,1.25E-2,-2.4754902E-2,1.6666668E-2,-1.6666668E-2,-2.4E-2,2.0000001E-2,2.4E-2,1.5359478E-2,-1.656051E-2,2E-3,6.25E-3,-2.4583334E-2,2.2395832E-2,-1.4285715E-2,1.6666668E-2,-2.2499999E-2,2.108108E-2,2.4770923E-2,-2.6041667E-3,2.2187982E-2,1.6666668E-2,-1.25E-2,-1.7857144E-3,2.4500001E-2,2.4815025E-2,6.25E-3,-1.6666668E-2,2.0000001E-2,1.25E-2,-2.3076924E-2,2.2794118E-2,-7.1428576E-3,1.0000001E-2,-2.1875E-2],"categories":[],"categories_nodes":[],"categories_segments":[],"categories_sizes":[],"default_left":[0,0,0,0,0,0,0,0,0,0,0,0,0,0,0,0,0,0,0,0,0,0,0,0,0,0,0,0,0,0,0,0,0,0,0,0,0,0,0,0,0,0,0,0,0,0,0,0,0,0,0,0,0,0,0,0,0,0,0,0,0,0,0,0,0,0,0,0,0,0,0,0,0,0,0,0,0,0,0,0,0,0,0,0,0,0,0,0,0,0,0,0,0,0,0,0,0,0,0,0,0,0,0,0,0,0,0,0,0,0,0,0,0,0,0,0,0,0,0,0,0,0,0,0,0,0,0,0,0,0,0,0,0,0,0,0,0,0,0,0,